{"learner":{"attributes":{},"feature_names":["Number_of_Riders","Number_of_Drivers","Number_of_Past_Rides","Average_Ratings","Expected_Ride_Duration","Location_Category_0","Location_Category_1","Location_Category_2","Customer_Loyalty_Status_0","Customer_Loyalty_Status_1","Customer_Loyalty_Status_2","Time_of_Booking_0","Time_of_Booking_1","Time_of_Booking_2","Time_of_Booking_3","Vehicle_Type_0","Vehicle_Type_1"],"feature_types":["int","int","int","float","int","i","i","i","i","i","i","i","i","i","i","i","i"],"gradient_booster":{"model":{"gbtree_model_param":{"num_parallel_tree":"1","num_trees":"10"},"iteration_indptr":[0,1,2,3,4,5,6,7,8,9,10],"tree_info":[0,0,0,0,0,0,0,0,0,0],"trees":[{"base_weights":[-4.302131E-6,-1.5148114E2,1.5190192E2,-2.3235269E2,-6.977266E1,7.327951E1,2.3277547E2,-1.3621269E1,-1.8388913E2,-1.09140114E2,-3.2985916E1,3.9231766E1,1.0840459E2,1.8380286E2,2.5008684E2,-9.241221E0,-2.6331308E0,-8.922025E1,-1.2931313E2,-1.6342768E1,-4.827657E1,5.903966E1,1.860654E1,8.317954E1,1.2088772E2,1.8613841E2,1.7340195E0,2.7302557E2,2.1571869E2,-5.228306E0,-5.868714E1,-6.6015563E0,-2.5437286E0,-3.5302395E1,3.297807E0,-6.34848E1,-5.72137E0,7.527276E1,3.2549683E1,-2.2245188E0,6.0407692E1,6.999272E1,7.151361E0,1.6850962E1,1.2430241E2,4.462135E0,1.9051764E2,2.3573972E2,2.994866E2,1.457231E2,2.3777261E2,-6.2782375E1,2.7329713E-1,2.1445549E1,-4.4430458E1,-1.10888195E1,3.9820873E1,-7.394961E1,-2.3873756E1,-4.455818E1,8.921231E0,7.870917E1,-5.236649E-1,4.7178566E1,-9.447464E0,-2.4111376E1,1.735405E1,7.412111E1,-2.3724161E1,9.520914E1,2.6335365E1,1.7138398E0,-4.5001754E-1,1.3511899E2,8.881603E1,2.7589073E0,9.61495E0,1.2374856E1,4.1372757E0,2.0710123E2,1.641922E1,1.6037825E2,1.4379014E0,2.6056973E2,1.4104459E2,-8.38427E-1,-3.5722368E0,1.2515534E0,2.6722488E-1,-2.4464173E0,1.1381806E0,1.1054955E-1,-1.615219E0,-1.2882073E0,2.7522867E0,-1.4702549E0,-3.9059372E0,-1.7243786E0,4.4248658E-1,-2.653089E0,-4.7618484E-1,1.8865036E0,-8.3648175E-2,3.2084095E0,5.1138496E0,-5.392283E-1,2.8462777E0,-1.031142E0,1.1607354E0,2.809222E0,-1.979769E0,-8.298885E-1,1.2625467E0,-2.0560303E-1,4.022768E0,-2.2352906E-1,-1.5557832E0,5.181164E0,9.298671E-1,1.8457924E0,-2.0272827E-1,6.9674807E0,1.7540644E0,1.5726892E0,6.0044E0,1.1299392E1,3.7556074E0,8.412677E0,1.4499893E0,1.3314853E1,2.07556E0,4.1660013E0,1.0340072E1],"categories":[],"categories_nodes":[],"categories_segments":[],"categories_sizes":[],"default_left":[0,0,0,0,0,0,0,0,0,0,0,0,0,0,0,0,0,0,0,0,0,0,0,0,0,0,0,0,0,0,0,0,0,0,0,0,0,0,0,0,0,0,0,0,0,0,0,0,0,0,0,0,0,0,0,0,0,0,0,0,0,0,0,0,0,0,0,0,0,0,0,0,0,0,0,0,0,0,0,0,0,0,0,0,0,0,0,0,0,0,0,0,0,0,0,0,0,0,0,0,0,0,0,0,0,0,0,0,0,0,0,0,0,0,0,0,0,0,0,0,0,0,0,0,0,0,0,0,0,0,0,0,0],"id":0,"left_children":[1,3,5,7,9,11,13,-1,15,17,19,21,23,25,27,-1,-1,29,31,33,35,37,39,41,43,45,-1,47,49,-1,51,-1,-1,53,55,57,59,61,63,65,67,69,-1,71,73,-1,75,77,79,81,83,85,-1,87,89,91,93,95,97,99,101,103,-1,105,107,109,111,113,115,117,119,-1,-1,121,123,-1,-1,-1,-1,125,-1,127,-1,129,131,-1,-1,-1,-1,-1,-1,-1,-1,-1,-1,-1,-1,-1,-1,-1,-1,-1,-1,-1,-1,-1,-1,-1,-1,-1,-1,-1,-1,-1,-1,-1,-1,-1,-1,-1,-1,-1,-1,-1,-1,-1,-1,-1,-1,-1,-1,-1,-1],"loss_changes":[1.6590408E7,2.369237E6,2.2719925E6,3.01419E5,2.5852425E5,2.1579819E5,1.0409E5,0E0,6.99E2,2.3423E4,2.3387062E4,3.7713E4,1.82845E4,1.0959E4,4.2014E4,0E0,0E0,1.58855E4,2.0240625E3,1.7618188E4,3.1349062E4,1.8190594E4,4.193097E4,1.6032766E4,1.8510125E4,3.789625E3,0E0,1.4225E3,5.179725E4,0E0,5.0721562E3,0E0,0E0,1.3384811E4,1.3052216E4,1.3157328E4,8.358921E3,9.369422E3,1.2733143E4,1.455937E4,2.0218223E4,2.9418219E4,0E0,1.6599453E3,9.494375E3,0E0,4.79375E2,4.247925E4,3.61105E4,2.2814062E4,5.365775E4,5.5779766E3,0E0,9.714404E1,7.4606367E3,5.1503574E3,8.407865E3,2.9028594E3,3.4310952E3,6.863325E2,3.4203926E3,3.0326562E3,0E0,9.08841E3,2.6688252E3,2.2117457E4,5.245153E3,7.2685156E3,2.878335E2,9.676078E3,4.0081592E3,0E0,0E0,1.24635E4,2.4924078E4,0E0,0E0,0E0,0E0,1.29395E4,0E0,9.605656E3,0E0,2.90935E4,2.072714E4,0E0,0E0,0E0,0E0,0E0,0E0,0E0,0E0,0E0,0E0,0E0,0E0,0E0,0E0,0E0,0E0,0E0,0E0,0E0,0E0,0E0,0E0,0E0,0E0,0E0,0E0,0E0,0E0,0E0,0E0,0E0,0E0,0E0,0E0,0E0,0E0,0E0,0E0,0E0,0E0,0E0,0E0,0E0,0E0,0E0,0E0,0E0,0E0],"parents":[2147483647,0,0,1,1,2,2,3,3,4,4,5,5,6,6,8,8,9,9,10,10,11,11,12,12,13,13,14,14,17,17,18,18,19,19,20,20,21,21,22,22,23,23,24,24,25,25,27,27,28,28,30,30,33,33,34,34,35,35,36,36,37,37,38,38,39,39,40,40,41,41,43,43,44,44,46,46,47,47,48,48,49,49,50,50,51,51,53,53,54,54,55,55,56,56,57,57,58,58,59,59,60,60,61,61,63,63,64,64,65,65,66,66,67,67,68,68,69,69,70,70,73,73,74,74,79,79,81,81,83,83,84,84],"right_children":[2,4,6,8,10,12,14,-1,16,18,20,22,24,26,28,-1,-1,30,32,34,36,38,40,42,44,46,-1,48,50,-1,52,-1,-1,54,56,58,60,62,64,66,68,70,-1,72,74,-1,76,78,80,82,84,86,-1,88,90,92,94,96,98,100,102,104,-1,106,108,110,112,114,116,118,120,-1,-1,122,124,-1,-1,-1,-1,126,-1,128,-1,130,132,-1,-1,-1,-1,-1,-1,-1,-1,-1,-1,-1,-1,-1,-1,-1,-1,-1,-1,-1,-1,-1,-1,-1,-1,-1,-1,-1,-1,-1,-1,-1,-1,-1,-1,-1,-1,-1,-1,-1,-1,-1,-1,-1,-1,-1,-1,-1,-1],"split_conditions":[1.03E2,5.7E1,1.45E2,3.4E1,8E1,1.25E2,1.55E2,-1.3621269E1,9.7E1,1E0,1E0,1E0,1.31E2,9.6E1,1E0,-9.241221E0,-2.6331308E0,7E1,7.9E1,8.9E1,9.8E1,1E0,1E0,5.1E1,6E0,1.1E1,1.7340195E0,4.19E0,1.4E1,-5.228306E0,8.9E1,-6.6015563E0,-2.5437286E0,2E0,1E0,8E1,3.2E1,9.7E1,3.3E1,4.33E0,8.9E1,2.3E1,7.151361E0,6E1,1E0,4.462135E0,2.1E1,4.13E0,1.63E2,1E0,4.2E1,1.6E1,2.7329713E-1,9.1E1,5.8E1,1E0,6E0,3.62E0,7.9E1,1.2E1,2.3E1,5.2E1,-5.236649E-1,2.5E1,4.81E0,3.54E0,1.06E2,9E0,2.4E1,1E0,3.4E1,1.7138398E0,-4.5001754E-1,9.8E1,4.1E1,2.7589073E0,9.61495E0,1.2374856E1,4.1372757E0,1E0,1.641922E1,6.6E1,1.4379014E0,4.93E0,1E0,-8.38427E-1,-3.5722368E0,1.2515534E0,2.6722488E-1,-2.4464173E0,1.1381806E0,1.1054955E-1,-1.615219E0,-1.2882073E0,2.7522867E0,-1.4702549E0,-3.9059372E0,-1.7243786E0,4.4248658E-1,-2.653089E0,-4.7618484E-1,1.8865036E0,-8.3648175E-2,3.2084095E0,5.1138496E0,-5.392283E-1,2.8462777E0,-1.031142E0,1.1607354E0,2.809222E0,-1.979769E0,-8.298885E-1,1.2625467E0,-2.0560303E-1,4.022768E0,-2.2352906E-1,-1.5557832E0,5.181164E0,9.298671E-1,1.8457924E0,-2.0272827E-1,6.9674807E0,1.7540644E0,1.5726892E0,6.0044E0,1.1299392E1,3.7556074E0,8.412677E0,1.4499893E0,1.3314853E1,2.07556E0,4.1660013E0,1.0340072E1],"split_indices":[4,4,4,4,4,4,4,0,2,15,15,15,4,0,15,0,0,4,4,4,4,7,7,1,1,2,0,3,1,0,2,0,0,2,11,2,2,2,1,3,2,1,0,0,12,0,0,3,4,12,1,2,0,0,1,14,1,3,0,1,0,2,0,0,3,3,4,2,0,8,1,0,0,2,2,0,0,0,0,12,0,2,0,3,9,0,0,0,0,0,0,0,0,0,0,0,0,0,0,0,0,0,0,0,0,0,0,0,0,0,0,0,0,0,0,0,0,0,0,0,0,0,0,0,0,0,0,0,0,0,0,0,0],"split_type":[0,0,0,0,0,0,0,0,0,0,0,0,0,0,0,0,0,0,0,0,0,0,0,0,0,0,0,0,0,0,0,0,0,0,0,0,0,0,0,0,0,0,0,0,0,0,0,0,0,0,0,0,0,0,0,0,0,0,0,0,0,0,0,0,0,0,0,0,0,0,0,0,0,0,0,0,0,0,0,0,0,0,0,0,0,0,0,0,0,0,0,0,0,0,0,0,0,0,0,0,0,0,0,0,0,0,0,0,0,0,0,0,0,0,0,0,0,0,0,0,0,0,0,0,0,0,0,0,0,0,0,0,0],"sum_hessian":[7.19E2,3.6E2,3.59E2,1.8E2,1.8E2,1.83E2,1.76E2,9.6E1,8.4E1,8.6E1,9.4E1,9.4E1,8.9E1,4.9E1,1.27E2,8.3E1,1E0,4.6E1,4E1,4.6E1,4.8E1,4.7E1,4.7E1,3.2E1,5.7E1,4.8E1,1E0,7.2E1,5.5E1,2.9E1,1.7E1,3.8E1,2E0,2.3E1,2.3E1,3.5E1,1.3E1,2.8E1,1.9E1,3.2E1,1.5E1,2.8E1,4E0,2E0,5.5E1,3E0,4.5E1,3.4E1,3.8E1,1.5E1,4E1,1.6E1,1E0,3E0,2E1,1.7E1,6E0,2.7E1,8E0,3E0,1E1,2.7E1,1E0,1.4E1,5E0,1.5E1,1.7E1,1.3E1,2E0,1.7E1,1.1E1,1E0,1E0,4E1,1.5E1,1E0,4.4E1,3.1E1,3E0,1.1E1,2.7E1,1.3E1,2E0,3.1E1,9E0,3E0,1.3E1,2E0,1E0,1.9E1,1E0,1.1E1,6E0,1E0,5E0,3E0,2.4E1,6E0,2E0,2E0,1E0,2E0,8E0,1.9E1,8E0,2E0,1.2E1,4E0,1E0,2E0,1.3E1,3E0,1.4E1,1E0,1.2E1,1E0,1E0,1.5E1,2E0,8E0,3E0,3.8E1,2E0,6E0,9E0,9E0,2E0,1.2E1,1E0,3E1,1E0,6E0,3E0],"tree_param":{"num_deleted":"0","num_feature":"17","num_nodes":"133","size_leaf_vector":"1"}},{"base_weights":[1.4157346E-1,-1.4405063E2,1.4473392E2,-2.1357959E2,-5.828184E1,6.9865555E1,2.2174547E2,-1.29472275E1,-1.6878366E2,-9.442242E1,-3.1418879E1,3.741265E1,1.03345116E2,1.749841E2,2.3827924E2,-1.5132733E2,-9.396005E0,-7.5003975E1,-1.1333333E2,-1.5522015E1,-4.602569E1,5.630091E1,1.7744963E1,7.947225E1,1.1514614E2,1.7717506E2,1.6906693E0,2.6003165E2,2.0566841E2,-8.256134E0,-6.0310254E0,-7.738349E1,2.66465E-1,-1.2291185E2,-3.401823E0,-3.3528507E1,3.1312282E0,-6.0495502E1,-5.530047E0,7.177804E1,3.1044025E1,-2.0750465E0,5.751467E1,6.676047E1,6.8653064E0,1.6429688E1,1.1837834E2,8.5896095E1,9.063037E0,2.2442451E2,2.853193E2,1.3914322E2,2.2661316E2,-1.7082052E1,-8.042822E1,-5.0101425E1,-6.344591E0,2.0752968E1,-4.227124E1,-1.0617968E1,3.8038982E1,-7.044413E1,-2.2822506E1,-4.3112595E1,8.639066E0,7.507093E1,-5.1057357E-1,4.1439697E1,-1.0449299E0,2.61406E0,-9.253377E0,7.0687706E1,-2.3131052E1,9.078819E1,2.5155518E1,1.6709938E0,-4.3876725E-1,1.2857578E2,8.48488E1,1.3304619E0,4.839432E0,1.177545E1,3.9821281E0,1.9800076E2,1.5627579E1,1.530638E2,1.3899715E0,2.4802219E2,1.3544296E2,-1.0438004E0,-2.3735352E-1,-1.0088837E0,-4.0821276E0,-6.669693E-1,-3.0906377E0,1.2098348E0,2.605446E-1,-2.3302126E0,1.109726E0,1.05483375E-1,-1.545996E0,-1.2560021E0,2.6376083E0,-4.7117767E-1,-3.6177564E0,1.5057679E-1,-1.8120726E0,-2.5646532E0,-4.6427995E-1,1.8236201E0,-7.9930454E-2,3.05601E0,4.886567E0,2.8916118E-1,2.7907314E0,-1.4499992E0,9.3999386E-1,-2.004631E-1,3.8371017E0,-2.1794052E-1,-1.5168885E0,2.7136474E0,5.7286544E0,1.7637571E0,-1.9512597E-1,6.62804E0,1.6955957E0,1.505288E0,5.7342024E0,1.0790919E1,3.63042E0,8.024399E0,1.4137398E0,1.2670586E1,2.023671E0,3.9874578E0,9.952319E0],"categories":[],"categories_nodes":[],"categories_segments":[],"categories_sizes":[],"default_left":[0,0,0,0,0,0,0,0,0,0,0,0,0,0,0,0,0,0,0,0,0,0,0,0,0,0,0,0,0,0,0,0,0,0,0,0,0,0,0,0,0,0,0,0,0,0,0,0,0,0,0,0,0,0,0,0,0,0,0,0,0,0,0,0,0,0,0,0,0,0,0,0,0,0,0,0,0,0,0,0,0,0,0,0,0,0,0,0,0,0,0,0,0,0,0,0,0,0,0,0,0,0,0,0,0,0,0,0,0,0,0,0,0,0,0,0,0,0,0,0,0,0,0,0,0,0,0,0,0,0,0,0,0,0,0,0,0],"id":1,"left_children":[1,3,5,7,9,11,13,-1,15,17,19,21,23,25,27,29,-1,31,33,35,37,39,41,43,45,47,-1,49,51,-1,-1,53,-1,55,-1,57,59,61,63,65,67,69,71,73,-1,75,77,79,-1,81,83,85,87,89,91,93,-1,95,97,99,101,103,105,107,109,111,-1,113,-1,-1,115,117,119,121,123,-1,-1,125,127,-1,-1,-1,-1,129,-1,131,-1,133,135,-1,-1,-1,-1,-1,-1,-1,-1,-1,-1,-1,-1,-1,-1,-1,-1,-1,-1,-1,-1,-1,-1,-1,-1,-1,-1,-1,-1,-1,-1,-1,-1,-1,-1,-1,-1,-1,-1,-1,-1,-1,-1,-1,-1,-1,-1,-1,-1],"loss_changes":[1.5032193E7,2.1403445E6,2.0601695E6,3.60696E5,1.5528075E5,1.9605119E5,9.5151E4,0E0,5.96975E3,1.683775E4,2.134482E4,3.4292344E4,1.62043125E4,9.474E3,3.73185E4,5.075875E3,0E0,7.4851094E3,5.9554688E3,1.5891321E4,2.8377727E4,1.653511E4,3.795468E4,1.5094031E4,1.6561188E4,2.704375E3,0E0,1.698E3,4.6496E4,0E0,0E0,5.2357812E3,0E0,1.1769375E3,0E0,1.2266893E4,1.1922781E4,1.1884875E4,7.8276113E3,8.596078E3,1.1665605E4,1.3359952E4,1.8632668E4,2.6706672E4,0E0,1.5779856E3,8.2378125E3,7.6660156E0,0E0,3.74125E4,3.085175E4,2.0544438E4,4.643375E4,4.1295227E1,8.4021875E2,4.6705225E2,0E0,8.8004395E1,6.9003125E3,4.716355E3,7.8300273E3,2.58325E3,3.2291323E3,6.305957E2,3.1927402E3,2.8782656E3,0E0,8.390721E3,0E0,0E0,1.7163895E4,6.639039E3,2.7362207E2,9.414969E3,3.6663394E3,0E0,0E0,1.09713125E4,2.2679695E4,0E0,0E0,0E0,0E0,1.1140094E4,0E0,8.432625E3,0E0,2.55385E4,1.9549375E4,0E0,0E0,0E0,0E0,0E0,0E0,0E0,0E0,0E0,0E0,0E0,0E0,0E0,0E0,0E0,0E0,0E0,0E0,0E0,0E0,0E0,0E0,0E0,0E0,0E0,0E0,0E0,0E0,0E0,0E0,0E0,0E0,0E0,0E0,0E0,0E0,0E0,0E0,0E0,0E0,0E0,0E0,0E0,0E0,0E0,0E0,0E0,0E0],"parents":[2147483647,0,0,1,1,2,2,3,3,4,4,5,5,6,6,8,8,9,9,10,10,11,11,12,12,13,13,14,14,15,15,17,17,18,18,19,19,20,20,21,21,22,22,23,23,24,24,25,25,27,27,28,28,31,31,33,33,35,35,36,36,37,37,38,38,39,39,40,40,41,41,42,42,43,43,45,45,46,46,47,47,49,49,50,50,51,51,52,52,53,53,54,54,55,55,57,57,58,58,59,59,60,60,61,61,62,62,63,63,64,64,65,65,67,67,70,70,71,71,72,72,73,73,74,74,77,77,78,78,83,83,85,85,87,87,88,88],"right_children":[2,4,6,8,10,12,14,-1,16,18,20,22,24,26,28,30,-1,32,34,36,38,40,42,44,46,48,-1,50,52,-1,-1,54,-1,56,-1,58,60,62,64,66,68,70,72,74,-1,76,78,80,-1,82,84,86,88,90,92,94,-1,96,98,100,102,104,106,108,110,112,-1,114,-1,-1,116,118,120,122,124,-1,-1,126,128,-1,-1,-1,-1,130,-1,132,-1,134,136,-1,-1,-1,-1,-1,-1,-1,-1,-1,-1,-1,-1,-1,-1,-1,-1,-1,-1,-1,-1,-1,-1,-1,-1,-1,-1,-1,-1,-1,-1,-1,-1,-1,-1,-1,-1,-1,-1,-1,-1,-1,-1,-1,-1,-1,-1,-1,-1],"split_conditions":[1.03E2,6.3E1,1.45E2,3.4E1,8E1,1.25E2,1.55E2,-1.29472275E1,1E0,1E0,1E0,1E0,1.31E2,9.6E1,1E0,5.1E1,-9.396005E0,9.8E1,7.8E1,8.9E1,9.8E1,1E0,1E0,5.1E1,6E0,1.1E1,1.6906693E0,4.19E0,1.4E1,-8.256134E0,-6.0310254E0,6E0,2.66465E-1,1.6E1,-3.401823E0,2E0,1E0,8E1,3.2E1,9.7E1,3.6E1,2.6E1,8.9E1,2.3E1,6.8653064E0,6E1,1E0,4.6E1,9.063037E0,4.13E0,1.63E2,1E0,4.2E1,4.3E1,2.2E1,6.1E1,-6.344591E0,9.1E1,5.8E1,1E0,6E0,3.55E0,1E0,1.2E1,2.3E1,5.2E1,-5.1057357E-1,3.6E1,-1.0449299E0,2.61406E0,4.51E0,9E0,2.4E1,1.7E1,3.4E1,1.6709938E0,-4.3876725E-1,9.8E1,4.1E1,1.3304619E0,4.839432E0,1.177545E1,3.9821281E0,1E0,1.5627579E1,6.6E1,1.3899715E0,4.93E0,1E0,-1.0438004E0,-2.3735352E-1,-1.0088837E0,-4.0821276E0,-6.669693E-1,-3.0906377E0,1.2098348E0,2.605446E-1,-2.3302126E0,1.109726E0,1.05483375E-1,-1.545996E0,-1.2560021E0,2.6376083E0,-4.7117767E-1,-3.6177564E0,1.5057679E-1,-1.8120726E0,-2.5646532E0,-4.6427995E-1,1.8236201E0,-7.9930454E-2,3.05601E0,4.886567E0,2.8916118E-1,2.7907314E0,-1.4499992E0,9.3999386E-1,-2.004631E-1,3.8371017E0,-2.1794052E-1,-1.5168885E0,2.7136474E0,5.7286544E0,1.7637571E0,-1.9512597E-1,6.62804E0,1.6955957E0,1.505288E0,5.7342024E0,1.0790919E1,3.63042E0,8.024399E0,1.4137398E0,1.2670586E1,2.023671E0,3.9874578E0,9.952319E0],"split_indices":[4,4,4,4,4,4,4,0,15,15,15,15,4,0,15,4,0,2,0,4,4,7,7,1,1,2,0,3,1,0,0,2,0,2,0,2,11,2,2,2,1,0,2,1,0,0,12,0,0,3,4,12,1,0,0,0,0,0,1,14,1,3,10,1,0,2,0,2,0,0,3,2,0,1,1,0,0,2,2,0,0,0,0,12,0,2,0,3,9,0,0,0,0,0,0,0,0,0,0,0,0,0,0,0,0,0,0,0,0,0,0,0,0,0,0,0,0,0,0,0,0,0,0,0,0,0,0,0,0,0,0,0,0,0,0,0,0],"split_type":[0,0,0,0,0,0,0,0,0,0,0,0,0,0,0,0,0,0,0,0,0,0,0,0,0,0,0,0,0,0,0,0,0,0,0,0,0,0,0,0,0,0,0,0,0,0,0,0,0,0,0,0,0,0,0,0,0,0,0,0,0,0,0,0,0,0,0,0,0,0,0,0,0,0,0,0,0,0,0,0,0,0,0,0,0,0,0,0,0,0,0,0,0,0,0,0,0,0,0,0,0,0,0,0,0,0,0,0,0,0,0,0,0,0,0,0,0,0,0,0,0,0,0,0,0,0,0,0,0,0,0,0,0,0,0,0,0],"sum_hessian":[7.19E2,3.6E2,3.59E2,1.98E2,1.62E2,1.83E2,1.76E2,9.6E1,1.02E2,6.8E1,9.4E1,9.4E1,8.9E1,4.9E1,1.27E2,5.8E1,4.4E1,3.6E1,3.2E1,4.6E1,4.8E1,4.7E1,4.7E1,3.2E1,5.7E1,4.8E1,1E0,7.2E1,5.5E1,3.7E1,2.1E1,3.5E1,1E0,2.5E1,7E0,2.3E1,2.3E1,3.5E1,1.3E1,2.8E1,1.9E1,3.2E1,1.5E1,2.8E1,4E0,2E0,5.5E1,3E0,4.5E1,3.4E1,3.8E1,1.5E1,4E1,2E0,3.3E1,2E0,2.3E1,3E0,2E1,1.7E1,6E0,2.7E1,8E0,3E0,1E1,2.7E1,1E0,1.6E1,3E0,3E0,2.9E1,1.3E1,2E0,1.7E1,1.1E1,1E0,1E0,4E1,1.5E1,1E0,2E0,3.1E1,3E0,1.1E1,2.7E1,1.3E1,2E0,3.1E1,9E0,1E0,1E0,1E0,3.2E1,1E0,1E0,2E0,1E0,1.9E1,1E0,1.1E1,6E0,1E0,5E0,1E0,2.6E1,3E0,5E0,2E0,1E0,2E0,8E0,1.9E1,8E0,5E0,1.1E1,1.7E1,1.2E1,1E0,1.2E1,1E0,1E0,8E0,9E0,8E0,3E0,3.8E1,2E0,6E0,9E0,9E0,2E0,1.2E1,1E0,3E1,1E0,6E0,3E0],"tree_param":{"num_deleted":"0","num_feature":"17","num_nodes":"137","size_leaf_vector":"1"}},{"base_weights":[2.5428873E-1,-1.3702284E2,1.3791205E2,-2.1008582E2,-6.3202835E1,6.6628494E1,2.1123555E2,-1.230654E1,-1.6648056E2,-9.881972E1,-2.9919981E1,3.568384E1,9.855199E1,1.6657336E2,2.2703143E2,-8.365588E0,-2.4165268E0,-8.085294E1,-1.1700553E2,-1.4741853E1,-4.3867985E1,5.3683094E1,1.6941174E1,7.601003E1,1.09678406E2,1.6862718E2,1.6484025E0,2.4765756E2,1.9608968E2,-4.74582E0,-5.2922016E1,-5.969865E0,-2.3455436E0,-3.184168E1,2.9722188E0,-5.7630455E1,-5.3453455E0,4.209984E1,8.881769E1,-1.9075327E0,5.4757805E1,6.3767643E1,6.5906944E0,1.6018951E1,1.12737335E2,4.157188E0,1.7239471E2,2.136535E2,2.7182382E2,1.3286282E2,2.159809E2,-5.6646378E1,2.5980303E-1,2.0082909E1,-4.021581E1,-1.016709E1,3.633441E1,-6.706795E1,-2.186599E1,-4.1714188E1,8.365628E0,5.1011837E1,-4.654981E0,2.163779E0,5.024327E0,2.516032E0,-8.807705E0,6.7413086E1,-2.2552786E1,8.671779E1,2.4028458E1,1.629219E0,-4.277977E-1,1.2234998E2,8.105884E1,2.4633584E0,8.701803E0,1.1205076E1,3.8327987E0,1.8930249E2,1.4874106E1,1.4608478E2,1.3436387E0,2.3608026E2,1.3006479E2,-1.6953278E0,-3.8995178E0,1.1695069E0,2.5403062E-1,-2.2195282E0,1.0819825E0,1.00649394E-1,-1.4797392E0,-1.2246017E0,2.5277078E0,-2.5378907E0,-4.099144E0,-2.3133723E-1,-2.1129181E0,-2.4791641E0,-4.5267257E-1,1.075529E0,-5.855216E-1,2.7979069E0,-7.7275646E-1,1.5017029E0,-1.2268704E0,-1.3815265E0,8.966091E-1,-1.9545136E-1,3.6600049E0,-2.1249238E-1,-1.4789666E0,2.5930405E0,5.470865E0,1.6853676E0,-1.8780862E-1,6.828068E0,4.2593985E0,1.7673568E-1,4.933856E0,1.0305327E1,3.5094056E0,7.6540422E0,1.3783966E0,1.8549546E0,1.2065114E1,3.8165665E0,9.579106E0],"categories":[],"categories_nodes":[],"categories_segments":[],"categories_sizes":[],"default_left":[0,0,0,0,0,0,0,0,0,0,0,0,0,0,0,0,0,0,0,0,0,0,0,0,0,0,0,0,0,0,0,0,0,0,0,0,0,0,0,0,0,0,0,0,0,0,0,0,0,0,0,0,0,0,0,0,0,0,0,0,0,0,0,0,0,0,0,0,0,0,0,0,0,0,0,0,0,0,0,0,0,0,0,0,0,0,0,0,0,0,0,0,0,0,0,0,0,0,0,0,0,0,0,0,0,0,0,0,0,0,0,0,0,0,0,0,0,0,0,0,0,0,0,0,0,0,0,0,0],"id":2,"left_children":[1,3,5,7,9,11,13,-1,15,17,19,21,23,25,27,-1,-1,29,31,33,35,37,39,41,43,45,-1,47,49,-1,51,-1,-1,53,55,57,59,61,63,65,67,69,-1,71,73,-1,75,77,79,81,83,85,-1,87,89,91,93,95,97,99,101,103,105,-1,-1,-1,107,109,111,113,115,-1,-1,117,119,-1,-1,-1,-1,121,-1,123,-1,125,127,-1,-1,-1,-1,-1,-1,-1,-1,-1,-1,-1,-1,-1,-1,-1,-1,-1,-1,-1,-1,-1,-1,-1,-1,-1,-1,-1,-1,-1,-1,-1,-1,-1,-1,-1,-1,-1,-1,-1,-1,-1,-1,-1,-1],"loss_changes":[1.3624925E7,1.933779E6,1.8675585E6,2.435105E5,2.1160644E5,1.7824975E5,8.70525E4,0E0,2.6125E2,1.8966188E4,1.946525E4,3.113918E4,1.4236375E4,8.160625E3,3.31275E4,0E0,0E0,1.34386875E4,1.2725625E3,1.4331295E4,2.567011E4,1.5795484E4,3.4318594E4,1.413925E4,1.4810875E4,1.447375E3,0E0,1.9115E3,4.173325E4,0E0,4.1904883E3,0E0,0E0,1.1243402E4,1.0889964E4,1.0684453E4,7.330097E3,1.6071258E4,1.4970469E3,1.233586E4,1.717455E4,2.436489E4,0E0,1.5000723E3,7.1353125E3,0E0,7.22125E2,3.29185E4,2.6263E4,1.8496625E4,4.0095625E4,5.606707E3,0E0,7.962781E1,6.383457E3,4.318928E3,7.2927305E3,2.6501328E3,2.9684233E3,5.791421E2,3.1547854E3,1.1385344E4,5.5648735E3,0E0,0E0,0E0,1.5595082E4,6.0645234E3,2.6011157E2,8.567766E3,3.3537056E3,0E0,0E0,1.0019625E4,2.1504672E4,0E0,0E0,0E0,0E0,9.553E3,0E0,7.388E3,0E0,2.4298375E4,1.8431688E4,0E0,0E0,0E0,0E0,0E0,0E0,0E0,0E0,0E0,0E0,0E0,0E0,0E0,0E0,0E0,0E0,0E0,0E0,0E0,0E0,0E0,0E0,0E0,0E0,0E0,0E0,0E0,0E0,0E0,0E0,0E0,0E0,0E0,0E0,0E0,0E0,0E0,0E0,0E0,0E0,0E0,0E0,0E0,0E0],"parents":[2147483647,0,0,1,1,2,2,3,3,4,4,5,5,6,6,8,8,9,9,10,10,11,11,12,12,13,13,14,14,17,17,18,18,19,19,20,20,21,21,22,22,23,23,24,24,25,25,27,27,28,28,30,30,33,33,34,34,35,35,36,36,37,37,38,38,39,39,40,40,41,41,43,43,44,44,46,46,47,47,48,48,49,49,50,50,51,51,53,53,54,54,55,55,56,56,57,57,58,58,59,59,60,60,61,61,62,62,66,66,67,67,68,68,69,69,70,70,73,73,74,74,79,79,81,81,83,83,84,84],"right_children":[2,4,6,8,10,12,14,-1,16,18,20,22,24,26,28,-1,-1,30,32,34,36,38,40,42,44,46,-1,48,50,-1,52,-1,-1,54,56,58,60,62,64,66,68,70,-1,72,74,-1,76,78,80,82,84,86,-1,88,90,92,94,96,98,100,102,104,106,-1,-1,-1,108,110,112,114,116,-1,-1,118,120,-1,-1,-1,-1,122,-1,124,-1,126,128,-1,-1,-1,-1,-1,-1,-1,-1,-1,-1,-1,-1,-1,-1,-1,-1,-1,-1,-1,-1,-1,-1,-1,-1,-1,-1,-1,-1,-1,-1,-1,-1,-1,-1,-1,-1,-1,-1,-1,-1,-1,-1,-1,-1],"split_conditions":[1.03E2,5.7E1,1.45E2,3.4E1,8E1,1.25E2,1.55E2,-1.230654E1,9.7E1,1E0,1E0,1E0,1.31E2,9.6E1,1E0,-8.365588E0,-2.4165268E0,7E1,7.9E1,8.9E1,9.8E1,8.7E1,1E0,5.1E1,6E0,1.1E1,1.6484025E0,4.19E0,1.4E1,-4.74582E0,8.9E1,-5.969865E0,-2.3455436E0,2E0,1E0,8E1,3.2E1,7.1E1,1.07E2,2.6E1,8.9E1,2.3E1,6.5906944E0,6E1,1E0,4.157188E0,2.1E1,4.13E0,1.63E2,1E0,4.2E1,5.9E1,2.5980303E-1,9.1E1,5.8E1,1E0,6E0,1E0,9.1E1,1.2E1,1E0,9.7E1,1.11E2,2.163779E0,5.024327E0,2.516032E0,4.51E0,9E0,2.4E1,1.7E1,3.4E1,1.629219E0,-4.277977E-1,7.2E1,3.82E0,2.4633584E0,8.701803E0,1.1205076E1,3.8327987E0,1E0,1.4874106E1,6.6E1,1.3436387E0,1E0,1E0,-1.6953278E0,-3.8995178E0,1.1695069E0,2.5403062E-1,-2.2195282E0,1.0819825E0,1.00649394E-1,-1.4797392E0,-1.2246017E0,2.5277078E0,-2.5378907E0,-4.099144E0,-2.3133723E-1,-2.1129181E0,-2.4791641E0,-4.5267257E-1,1.075529E0,-5.855216E-1,2.7979069E0,-7.7275646E-1,1.5017029E0,-1.2268704E0,-1.3815265E0,8.966091E-1,-1.9545136E-1,3.6600049E0,-2.1249238E-1,-1.4789666E0,2.5930405E0,5.470865E0,1.6853676E0,-1.8780862E-1,6.828068E0,4.2593985E0,1.7673568E-1,4.933856E0,1.0305327E1,3.5094056E0,7.6540422E0,1.3783966E0,1.8549546E0,1.2065114E1,3.8165665E0,9.579106E0],"split_indices":[4,4,4,4,4,4,4,0,2,15,15,15,4,0,15,0,0,4,4,4,4,0,7,1,1,2,0,3,1,0,2,0,0,2,11,2,2,0,4,0,2,1,0,0,12,0,0,3,4,12,1,2,0,0,1,14,1,10,4,1,10,2,4,0,0,0,3,2,0,1,1,0,0,0,3,0,0,0,0,12,0,2,0,2,9,0,0,0,0,0,0,0,0,0,0,0,0,0,0,0,0,0,0,0,0,0,0,0,0,0,0,0,0,0,0,0,0,0,0,0,0,0,0,0,0,0,0,0,0],"split_type":[0,0,0,0,0,0,0,0,0,0,0,0,0,0,0,0,0,0,0,0,0,0,0,0,0,0,0,0,0,0,0,0,0,0,0,0,0,0,0,0,0,0,0,0,0,0,0,0,0,0,0,0,0,0,0,0,0,0,0,0,0,0,0,0,0,0,0,0,0,0,0,0,0,0,0,0,0,0,0,0,0,0,0,0,0,0,0,0,0,0,0,0,0,0,0,0,0,0,0,0,0,0,0,0,0,0,0,0,0,0,0,0,0,0,0,0,0,0,0,0,0,0,0,0,0,0,0,0,0],"sum_hessian":[7.19E2,3.6E2,3.59E2,1.8E2,1.8E2,1.83E2,1.76E2,9.6E1,8.4E1,8.6E1,9.4E1,9.4E1,8.9E1,4.9E1,1.27E2,8.3E1,1E0,4.6E1,4E1,4.6E1,4.8E1,4.7E1,4.7E1,3.2E1,5.7E1,4.8E1,1E0,7.2E1,5.5E1,2.9E1,1.7E1,3.8E1,2E0,2.3E1,2.3E1,3.5E1,1.3E1,3.7E1,1E1,3.2E1,1.5E1,2.8E1,4E0,2E0,5.5E1,3E0,4.5E1,3.4E1,3.8E1,1.5E1,4E1,1.6E1,1E0,3E0,2E1,1.7E1,6E0,2.7E1,8E0,3E0,1E1,3.1E1,6E0,3E0,7E0,3E0,2.9E1,1.3E1,2E0,1.7E1,1.1E1,1E0,1E0,4E1,1.5E1,1E0,4.4E1,3.1E1,3E0,1.1E1,2.7E1,1.3E1,2E0,3.1E1,9E0,9E0,7E0,2E0,1E0,1.9E1,1E0,1.1E1,6E0,1E0,5E0,1.5E1,1.2E1,5E0,3E0,2E0,1E0,6E0,4E0,2.9E1,2E0,2E0,4E0,1.7E1,1.2E1,1E0,1.2E1,1E0,1E0,8E0,9E0,8E0,3E0,2.7E1,1.3E1,3E0,1.2E1,9E0,2E0,1.2E1,1E0,1E0,3E1,6E0,3E0],"tree_param":{"num_deleted":"0","num_feature":"17","num_nodes":"129","size_leaf_vector":"1"}},{"base_weights":[3.7009773E-1,-1.3031767E2,1.3141986E2,-1.9316805E2,-5.278673E1,6.355166E1,2.0122963E2,-2.339511E2,-1.528853E2,-8.540212E1,-2.8542011E1,3.4039566E1,9.3997185E1,1.533495E2,2.1453651E2,-1.0400526E1,-1.2804929E1,-8.599418E0,-1.3691289E2,-6.783866E1,-1.02506546E2,-1.4000284E1,-4.1907707E1,5.1196606E1,1.6173372E1,7.269899E1,1.0449448E2,3.2167485E0,1.6363971E2,2.3253732E2,1.8550842E2,-5.907888E0,-7.7398615E0,-7.0004524E1,2.5330812E-1,-1.1141452E2,-6.0742302E1,-3.0237665E1,2.8204422E0,-5.4998405E1,-5.2525E0,4.005537E1,8.503027E1,-1.750603E0,5.2130737E1,6.090897E1,6.327067E0,1.561848E1,1.0738972E2,2.488087E0,1.6872525E2,2.022698E2,2.538775E2,1.2554172E2,2.0584807E2,-1.552478E1,-7.27526E1,-4.4868973E1,-5.754522E0,-3.2363102E0,-8.2137454E-1,1.9434654E1,-3.825917E1,-9.735352E0,3.470385E1,-6.2433865E1,-1.5275247E1,-4.0361443E1,7.991888E0,4.852453E1,-4.3829737E0,2.082637E0,4.804513E0,4.8433624E1,-8.38348E0,6.42899E1,-2.1988962E1,8.2829895E1,2.2951834E1,1.5884888E0,-4.171028E-1,1.09703674E2,2.9941925E1,1.0116502E1,1.3340517E2,1.0674093E1,4.2786956E0,1.8680217E2,1.4156961E1,1.3708522E2,1.298851E0,2.1503136E2,3.3572414E0,-9.7532195E-1,-1.8903656E-1,-9.412789E-1,-3.6908143E0,-5.0104827E-1,-2.8641248E0,1.1305237E0,2.476799E-1,-8.973687E-1,-2.7546432E0,1.2592405E-1,-1.4675578E0,-5.282191E-1,2.746201E0,-2.333463E0,-3.855852E0,-1.3275248E0,4.3042907E-1,-2.3965256E0,-4.413559E-1,1.1736964E0,-4.4110665E-1,1.6527134E0,3.752686E0,1.451646E0,-1.1777958E0,7.337799E-1,2.7397218E0,-1.1489501E0,1.1552733E0,-1.9056474E-1,3.4910817E0,-2.0718002E-1,-1.4419922E0,4.52381E0,7.219813E-1,1.6104625E0,-1.8076591E-1,6.00871E0,3.866265E0,1.8320496E0,4.135948E-1,2.8100052E-1,6.991746E0,9.947461E0,3.3924255E0,7.15186E0,1.3439369E0,1.0951802E1,1.6714509E0],"categories":[],"categories_nodes":[],"categories_segments":[],"categories_sizes":[],"default_left":[0,0,0,0,0,0,0,0,0,0,0,0,0,0,0,0,0,0,0,0,0,0,0,0,0,0,0,0,0,0,0,0,0,0,0,0,0,0,0,0,0,0,0,0,0,0,0,0,0,0,0,0,0,0,0,0,0,0,0,0,0,0,0,0,0,0,0,0,0,0,0,0,0,0,0,0,0,0,0,0,0,0,0,0,0,0,0,0,0,0,0,0,0,0,0,0,0,0,0,0,0,0,0,0,0,0,0,0,0,0,0,0,0,0,0,0,0,0,0,0,0,0,0,0,0,0,0,0,0,0,0,0,0,0,0,0,0,0,0,0,0,0,0],"id":3,"left_children":[1,3,5,7,9,11,13,15,17,19,21,23,25,27,29,-1,-1,-1,31,33,35,37,39,41,43,45,47,-1,49,51,53,-1,-1,55,-1,57,59,61,63,65,67,69,71,73,75,77,-1,79,81,-1,83,85,87,89,91,93,95,97,-1,-1,-1,99,101,103,105,107,109,111,113,115,117,-1,-1,119,121,123,125,127,129,-1,-1,131,133,-1,135,-1,-1,137,-1,139,-1,141,-1,-1,-1,-1,-1,-1,-1,-1,-1,-1,-1,-1,-1,-1,-1,-1,-1,-1,-1,-1,-1,-1,-1,-1,-1,-1,-1,-1,-1,-1,-1,-1,-1,-1,-1,-1,-1,-1,-1,-1,-1,-1,-1,-1,-1,-1,-1,-1,-1,-1,-1],"loss_changes":[1.2348279E7,1.7489015E6,1.692842E6,2.91161E5,1.2645484E5,1.621265E5,7.9874E4,2.457E3,7.88025E3,1.37745625E4,1.7877508E4,2.8292422E4,1.25249375E4,2.7943312E4,2.79265E4,0E0,0E0,0E0,2.17025E3,6.1970312E3,5.5095938E3,1.2922138E4,2.322339E4,1.4687633E4,3.1027207E4,1.3240984E4,1.32471875E4,0E0,1.30318125E4,3.215E2,4.3680375E4,0E0,0E0,4.26025E3,0E0,1.1960625E3,3.4907812E2,1.0306275E4,9.94557E3,9.679266E3,6.832514E3,1.4514184E4,1.2748828E3,1.1390614E4,1.583341E4,2.22285E4,0E0,1.4260061E3,6.751E3,0E0,1.45505E4,3.145075E4,3.150675E4,1.5977469E4,3.7785625E4,6.653375E1,5.606406E2,7.237334E2,0E0,0E0,0E0,7.1953735E1,6.1916016E3,4.4005586E3,6.9875576E3,3.3452422E3,2.1136348E3,5.316538E2,3.0705588E3,1.0652383E4,5.1686636E3,0E0,0E0,5.477246E1,1.4318869E4,5.5401562E3,2.4726855E2,8.1063594E3,3.0677666E3,0E0,0E0,9.0145625E3,1.324165E2,0E0,1.5646594E4,0E0,0E0,9.620625E3,0E0,5.9945312E3,0E0,2.031375E4,0E0,0E0,0E0,0E0,0E0,0E0,0E0,0E0,0E0,0E0,0E0,0E0,0E0,0E0,0E0,0E0,0E0,0E0,0E0,0E0,0E0,0E0,0E0,0E0,0E0,0E0,0E0,0E0,0E0,0E0,0E0,0E0,0E0,0E0,0E0,0E0,0E0,0E0,0E0,0E0,0E0,0E0,0E0,0E0,0E0,0E0,0E0,0E0,0E0,0E0,0E0],"parents":[2147483647,0,0,1,1,2,2,3,3,4,4,5,5,6,6,7,7,8,8,9,9,10,10,11,11,12,12,13,13,14,14,18,18,19,19,20,20,21,21,22,22,23,23,24,24,25,25,26,26,28,28,29,29,30,30,33,33,35,35,36,36,37,37,38,38,39,39,40,40,41,41,42,42,43,43,44,44,45,45,47,47,48,48,50,50,51,51,52,52,53,53,54,54,55,55,56,56,57,57,61,61,62,62,63,63,64,64,65,65,66,66,67,67,68,68,69,69,70,70,73,73,74,74,75,75,76,76,77,77,78,78,81,81,82,82,84,84,87,87,89,89,91,91],"right_children":[2,4,6,8,10,12,14,16,18,20,22,24,26,28,30,-1,-1,-1,32,34,36,38,40,42,44,46,48,-1,50,52,54,-1,-1,56,-1,58,60,62,64,66,68,70,72,74,76,78,-1,80,82,-1,84,86,88,90,92,94,96,98,-1,-1,-1,100,102,104,106,108,110,112,114,116,118,-1,-1,120,122,124,126,128,130,-1,-1,132,134,-1,136,-1,-1,138,-1,140,-1,142,-1,-1,-1,-1,-1,-1,-1,-1,-1,-1,-1,-1,-1,-1,-1,-1,-1,-1,-1,-1,-1,-1,-1,-1,-1,-1,-1,-1,-1,-1,-1,-1,-1,-1,-1,-1,-1,-1,-1,-1,-1,-1,-1,-1,-1,-1,-1,-1,-1,-1,-1],"split_conditions":[1.03E2,6.3E1,1.45E2,3.4E1,8E1,1.25E2,1.54E2,1E0,4.6E1,1E0,1E0,1E0,1.31E2,8E0,1E0,-1.0400526E1,-1.2804929E1,-8.599418E0,1E0,9.8E1,7.8E1,8.9E1,9.8E1,8.7E1,1E0,5.1E1,6E0,3.2167485E0,1.1E1,4.19E0,1.4E1,-5.907888E0,-7.7398615E0,6E0,2.5330812E-1,1.6E1,1E0,2E0,1E0,8.1E1,3.2E1,7.1E1,1.07E2,2.6E1,8.9E1,2.3E1,6.327067E0,6E1,9.8E1,2.488087E0,6.2E1,4.13E0,1.63E2,1E0,9.7E1,4.3E1,2.2E1,6.1E1,-5.754522E0,-3.2363102E0,-8.2137454E-1,9.1E1,1E0,9.7E1,8E0,8.8E1,7.9E1,1.2E1,5.2E1,1E0,1.11E2,2.082637E0,4.804513E0,2.3E1,4.57E0,9E0,2.4E1,1E0,3.4E1,1.5884888E0,-4.171028E-1,1E0,7.6E1,1.0116502E1,1E1,1.0674093E1,4.2786956E0,1E0,1.4156961E1,6.6E1,1.298851E0,4.93E0,3.3572414E0,-9.7532195E-1,-1.8903656E-1,-9.412789E-1,-3.6908143E0,-5.0104827E-1,-2.8641248E0,1.1305237E0,2.476799E-1,-8.973687E-1,-2.7546432E0,1.2592405E-1,-1.4675578E0,-5.282191E-1,2.746201E0,-2.333463E0,-3.855852E0,-1.3275248E0,4.3042907E-1,-2.3965256E0,-4.413559E-1,1.1736964E0,-4.4110665E-1,1.6527134E0,3.752686E0,1.451646E0,-1.1777958E0,7.337799E-1,2.7397218E0,-1.1489501E0,1.1552733E0,-1.9056474E-1,3.4910817E0,-2.0718002E-1,-1.4419922E0,4.52381E0,7.219813E-1,1.6104625E0,-1.8076591E-1,6.00871E0,3.866265E0,1.8320496E0,4.135948E-1,2.8100052E-1,6.991746E0,9.947461E0,3.3924255E0,7.15186E0,1.3439369E0,1.0951802E1,1.6714509E0],"split_indices":[4,4,4,4,4,4,4,15,4,15,15,15,4,1,15,0,0,0,15,2,0,4,4,0,7,1,1,0,2,3,1,0,0,2,0,2,10,2,11,2,2,0,4,0,2,1,0,0,2,0,0,3,4,12,0,0,0,0,0,0,0,0,6,4,2,4,0,1,0,10,4,0,0,0,3,2,0,8,1,0,0,12,0,0,1,0,0,12,0,2,0,3,0,0,0,0,0,0,0,0,0,0,0,0,0,0,0,0,0,0,0,0,0,0,0,0,0,0,0,0,0,0,0,0,0,0,0,0,0,0,0,0,0,0,0,0,0,0,0,0,0,0,0],"split_type":[0,0,0,0,0,0,0,0,0,0,0,0,0,0,0,0,0,0,0,0,0,0,0,0,0,0,0,0,0,0,0,0,0,0,0,0,0,0,0,0,0,0,0,0,0,0,0,0,0,0,0,0,0,0,0,0,0,0,0,0,0,0,0,0,0,0,0,0,0,0,0,0,0,0,0,0,0,0,0,0,0,0,0,0,0,0,0,0,0,0,0,0,0,0,0,0,0,0,0,0,0,0,0,0,0,0,0,0,0,0,0,0,0,0,0,0,0,0,0,0,0,0,0,0,0,0,0,0,0,0,0,0,0,0,0,0,0,0,0,0,0,0,0],"sum_hessian":[7.19E2,3.6E2,3.59E2,1.98E2,1.62E2,1.83E2,1.76E2,9.6E1,1.02E2,6.8E1,9.4E1,9.4E1,8.9E1,4.1E1,1.35E2,4.9E1,4.7E1,4.2E1,6E1,3.6E1,3.2E1,4.6E1,4.8E1,4.7E1,4.7E1,3.2E1,5.7E1,5E0,3.6E1,7.9E1,5.6E1,3.3E1,2.7E1,3.5E1,1E0,2.5E1,7E0,2.3E1,2.3E1,3.5E1,1.3E1,3.7E1,1E1,3.2E1,1.5E1,2.8E1,4E0,2E0,5.5E1,2E0,3.4E1,3.7E1,4.2E1,1.6E1,4E1,2E0,3.3E1,2E0,2.3E1,6E0,1E0,3E0,2E1,1.7E1,6E0,2.9E1,6E0,3E0,1E1,3.1E1,6E0,3E0,7E0,3E0,2.9E1,1.3E1,2E0,1.7E1,1.1E1,1E0,1E0,5.3E1,2E0,1.5E1,1.9E1,3.3E1,4E0,1.5E1,2.7E1,1.4E1,2E0,3.7E1,3E0,1E0,1E0,1E0,3.2E1,1E0,1E0,2E0,1E0,1E1,1E1,1.1E1,6E0,2E0,4E0,1.6E1,1.3E1,4E0,2E0,2E0,1E0,5E0,5E0,2.1E1,1E1,2E0,4E0,1E0,2E0,2E1,9E0,1E0,1.2E1,1E0,1E0,1.5E1,2E0,8E0,3E0,3.8E1,1.5E1,1E0,1E0,1E0,1.8E1,1.3E1,2E0,1.3E1,1E0,3.6E1,1E0],"tree_param":{"num_deleted":"0","num_feature":"17","num_nodes":"143","size_leaf_vector":"1"}},{"base_weights":[4.35689E-1,-1.2400889E2,1.2522473E2,-1.8373805E2,-5.032721E1,6.0613167E1,1.9168407E2,-2.2249278E2,-1.4545702E2,-8.140333E1,-2.7226374E1,3.252388E1,8.958949E1,1.4623187E2,2.0431134E2,-9.890901E0,-1.21780205E1,-1.2954543E2,-1.630865E2,-6.4596535E1,-9.778054E1,-1.3330003E1,-3.9999905E1,4.8898575E1,1.5471604E1,6.945806E1,9.949893E1,3.0827177E0,1.5599493E2,2.2144107E2,1.766852E2,-7.07076E0,-5.1577334E0,-8.235648E0,-2.2880743E0,-6.66653E1,2.469757E-1,-1.0619456E2,-5.8212406E1,-2.8820526E1,2.7159374E0,-5.2445324E1,-5.140261E0,6.28995E1,2.6152308E1,-1.5576191E0,4.9627403E1,5.8093708E1,6.0739846E0,1.5228017E1,1.0223668E2,2.4051504E0,1.6078581E2,2.0017259E2,2.5194177E2,1.1984079E2,1.9594543E2,-1.5136668E1,-6.92512E1,-4.374725E1,-5.478785E0,-3.097612E0,-8.0084E-1,-6.1917877E0,-4.749163E1,1.4590532E1,-2.8206726E1,-6.104899E1,-1.9851112E1,-3.905285E1,7.6588855E0,6.58885E1,-5.1980823E-1,1.4234109E1,7.026657E1,4.6880325E1,-7.964091E0,6.1311153E1,-2.143924E1,7.8979836E1,2.1923372E1,1.5487763E0,-4.0667495E-1,1.0440137E2,2.9193369E1,9.64229E0,1.2709853E2,1.0442834E1,1.3547565E2,1.7964767E2,1.4026809E1,1.3079735E2,1.2555557E0,2.1462903E2,1.165634E2,-9.509392E-1,-1.8431091E-1,-9.177467E-1,-3.511865E0,-4.8852235E-1,-2.7925212E0,-1.270497E0,1.2897806E0,-2.7215254E0,8.9437336E-1,-2.0363643E0,1.4184625E0,-2.2381828E0,4.3951973E-1,-1.0780491E0,-3.2462556E0,-1.8730164E-1,-1.9522976E0,-2.3166418E0,-4.3032226E-1,1.7155427E0,-1.0380453E-1,2.6503093E0,4.3597455E0,2.8401718E0,-4.1183648E-1,5.1399875E0,-6.833237E-1,7.154358E-1,2.648398E0,-1.2620312E0,8.2849425E-1,-1.8580094E-1,3.3299546E0,-2.0200042E-1,-1.4059426E0,2.3189783E0,5.021105E0,1.538886E0,-1.7398758E-1,5.7159786E0,3.6850336E0,1.7862481E0,4.0325472E-1,3.0357466E0,7.2589374E0,1.6108688E0,7.217788E0,1.0838257E1,4.587684E0,6.819809E0,1.3103386E0,1.5347855E0,1.0978609E1,3.2921302E0,8.809197E0],"categories":[],"categories_nodes":[],"categories_segments":[],"categories_sizes":[],"default_left":[0,0,0,0,0,0,0,0,0,0,0,0,0,0,0,0,0,0,0,0,0,0,0,0,0,0,0,0,0,0,0,0,0,0,0,0,0,0,0,0,0,0,0,0,0,0,0,0,0,0,0,0,0,0,0,0,0,0,0,0,0,0,0,0,0,0,0,0,0,0,0,0,0,0,0,0,0,0,0,0,0,0,0,0,0,0,0,0,0,0,0,0,0,0,0,0,0,0,0,0,0,0,0,0,0,0,0,0,0,0,0,0,0,0,0,0,0,0,0,0,0,0,0,0,0,0,0,0,0,0,0,0,0,0,0,0,0,0,0,0,0,0,0,0,0,0,0,0,0,0,0],"id":4,"left_children":[1,3,5,7,9,11,13,15,17,19,21,23,25,27,29,-1,-1,31,33,35,37,39,41,43,45,47,49,-1,51,53,55,-1,-1,-1,-1,57,-1,59,61,63,65,67,69,71,73,75,77,79,-1,81,83,-1,85,87,89,91,93,95,97,99,-1,-1,-1,101,103,105,107,109,111,113,115,117,-1,119,121,123,125,127,129,131,133,-1,-1,135,137,-1,139,-1,141,143,-1,145,-1,147,149,-1,-1,-1,-1,-1,-1,-1,-1,-1,-1,-1,-1,-1,-1,-1,-1,-1,-1,-1,-1,-1,-1,-1,-1,-1,-1,-1,-1,-1,-1,-1,-1,-1,-1,-1,-1,-1,-1,-1,-1,-1,-1,-1,-1,-1,-1,-1,-1,-1,-1,-1,-1,-1,-1,-1,-1],"loss_changes":[1.1196639E7,1.579494E6,1.5342365E6,2.628675E5,1.1479881E5,1.4684819E5,7.17105E4,2.244E3,7.76575E3,1.2675844E4,1.6329844E4,2.5769922E4,1.104325E4,2.5063062E4,2.52335E4,0E0,0E0,3.89425E3,1.0495E3,5.6518906E3,4.80475E3,1.1760595E4,2.0988727E4,1.3641539E4,2.799634E4,1.2452141E4,1.18244375E4,0E0,1.13909375E4,1.4645E3,3.8923375E4,0E0,0E0,0E0,0E0,3.7486875E3,0E0,6.9609375E2,2.701582E2,9.846027E3,9.22421E3,8.883578E3,6.3758315E3,7.0383203E3,9.515067E3,1.0613799E4,1.4599664E4,2.0176773E4,0E0,1.3555964E3,5.8066875E3,0E0,1.32900625E4,9.20375E2,9.55125E3,1.436E4,3.5790875E4,6.3248535E1,4.1721875E2,6.8799805E2,0E0,0E0,0E0,8.032329E3,6.871172E3,1.4875157E4,4.6814014E3,2.885836E3,2.6359424E3,4.8783643E2,2.9252512E3,3.0634453E3,0E0,1.6729541E4,1.2327342E4,3.523242E1,1.3134096E4,5.0615195E3,2.3505981E2,7.9248906E3,2.8062354E3,0E0,0E0,8.0173125E3,1.2587866E2,0E0,1.51900625E4,0E0,3.60175E3,1.5997406E4,0E0,5.209297E3,0E0,2.2354875E4,1.863961E4,0E0,0E0,0E0,0E0,0E0,0E0,0E0,0E0,0E0,0E0,0E0,0E0,0E0,0E0,0E0,0E0,0E0,0E0,0E0,0E0,0E0,0E0,0E0,0E0,0E0,0E0,0E0,0E0,0E0,0E0,0E0,0E0,0E0,0E0,0E0,0E0,0E0,0E0,0E0,0E0,0E0,0E0,0E0,0E0,0E0,0E0,0E0,0E0,0E0,0E0,0E0,0E0,0E0,0E0,0E0,0E0],"parents":[2147483647,0,0,1,1,2,2,3,3,4,4,5,5,6,6,7,7,8,8,9,9,10,10,11,11,12,12,13,13,14,14,17,17,18,18,19,19,20,20,21,21,22,22,23,23,24,24,25,25,26,26,28,28,29,29,30,30,35,35,37,37,38,38,39,39,40,40,41,41,42,42,43,43,44,44,45,45,46,46,47,47,49,49,50,50,52,52,53,53,54,54,55,55,56,56,57,57,58,58,59,59,63,63,64,64,65,65,66,66,67,67,68,68,69,69,70,70,71,71,73,73,74,74,75,75,76,76,77,77,78,78,79,79,80,80,83,83,84,84,86,86,88,88,89,89,91,91,93,93,94,94],"right_children":[2,4,6,8,10,12,14,16,18,20,22,24,26,28,30,-1,-1,32,34,36,38,40,42,44,46,48,50,-1,52,54,56,-1,-1,-1,-1,58,-1,60,62,64,66,68,70,72,74,76,78,80,-1,82,84,-1,86,88,90,92,94,96,98,100,-1,-1,-1,102,104,106,108,110,112,114,116,118,-1,120,122,124,126,128,130,132,134,-1,-1,136,138,-1,140,-1,142,144,-1,146,-1,148,150,-1,-1,-1,-1,-1,-1,-1,-1,-1,-1,-1,-1,-1,-1,-1,-1,-1,-1,-1,-1,-1,-1,-1,-1,-1,-1,-1,-1,-1,-1,-1,-1,-1,-1,-1,-1,-1,-1,-1,-1,-1,-1,-1,-1,-1,-1,-1,-1,-1,-1,-1,-1,-1,-1,-1,-1],"split_conditions":[1.03E2,6.3E1,1.45E2,3.4E1,8E1,1.25E2,1.54E2,1E0,1E0,1E0,1E0,1E0,1.31E2,8E0,1E0,-9.890901E0,-1.21780205E1,5.1E1,9.3E1,9.8E1,7.8E1,8.9E1,9.8E1,1E0,1E0,5.1E1,6E0,3.0827177E0,1.1E1,4.45E0,1.4E1,-7.07076E0,-5.1577334E0,-8.235648E0,-2.2880743E0,6E0,2.469757E-1,1.6E1,1E0,3.4E1,1E0,8E1,3.2E1,9.7E1,7.6E1,2.6E1,8.9E1,2.3E1,6.0739846E0,6E1,9.8E1,2.4051504E0,6.2E1,8.8E1,1.63E2,1E0,4.2E1,4.3E1,2.2E1,6.1E1,-5.478785E0,-3.097612E0,-8.0084E-1,8.7E1,8.9E1,6E0,4.6E1,3.62E0,9.1E1,1.2E1,2.3E1,5.2E1,-5.1980823E-1,1.08E2,9.3E1,2.3E1,4.51E0,9E0,2.4E1,1.7E1,3.4E1,1.5487763E0,-4.0667495E-1,1E0,7.6E1,9.64229E0,1.7E1,1.0442834E1,1E1,1.58E2,1.4026809E1,6.6E1,1.2555557E0,1E0,1E0,-9.509392E-1,-1.8431091E-1,-9.177467E-1,-3.511865E0,-4.8852235E-1,-2.7925212E0,-1.270497E0,1.2897806E0,-2.7215254E0,8.9437336E-1,-2.0363643E0,1.4184625E0,-2.2381828E0,4.3951973E-1,-1.0780491E0,-3.2462556E0,-1.8730164E-1,-1.9522976E0,-2.3166418E0,-4.3032226E-1,1.7155427E0,-1.0380453E-1,2.6503093E0,4.3597455E0,2.8401718E0,-4.1183648E-1,5.1399875E0,-6.833237E-1,7.154358E-1,2.648398E0,-1.2620312E0,8.2849425E-1,-1.8580094E-1,3.3299546E0,-2.0200042E-1,-1.4059426E0,2.3189783E0,5.021105E0,1.538886E0,-1.7398758E-1,5.7159786E0,3.6850336E0,1.7862481E0,4.0325472E-1,3.0357466E0,7.2589374E0,1.6108688E0,7.217788E0,1.0838257E1,4.587684E0,6.819809E0,1.3103386E0,1.5347855E0,1.0978609E1,3.2921302E0,8.809197E0],"split_indices":[4,4,4,4,4,4,4,15,15,15,15,15,4,1,15,0,0,4,2,2,0,4,4,7,7,1,1,0,2,3,1,0,0,0,0,2,0,2,10,2,14,2,2,2,2,0,2,1,0,0,2,0,0,2,4,12,1,0,0,0,0,0,0,4,2,2,1,3,4,1,0,2,0,4,2,0,3,2,0,1,1,0,0,12,0,0,1,0,1,4,0,2,0,2,9,0,0,0,0,0,0,0,0,0,0,0,0,0,0,0,0,0,0,0,0,0,0,0,0,0,0,0,0,0,0,0,0,0,0,0,0,0,0,0,0,0,0,0,0,0,0,0,0,0,0,0,0,0,0,0,0],"split_type":[0,0,0,0,0,0,0,0,0,0,0,0,0,0,0,0,0,0,0,0,0,0,0,0,0,0,0,0,0,0,0,0,0,0,0,0,0,0,0,0,0,0,0,0,0,0,0,0,0,0,0,0,0,0,0,0,0,0,0,0,0,0,0,0,0,0,0,0,0,0,0,0,0,0,0,0,0,0,0,0,0,0,0,0,0,0,0,0,0,0,0,0,0,0,0,0,0,0,0,0,0,0,0,0,0,0,0,0,0,0,0,0,0,0,0,0,0,0,0,0,0,0,0,0,0,0,0,0,0,0,0,0,0,0,0,0,0,0,0,0,0,0,0,0,0,0,0,0,0,0,0],"sum_hessian":[7.19E2,3.6E2,3.59E2,1.98E2,1.62E2,1.83E2,1.76E2,9.6E1,1.02E2,6.8E1,9.4E1,9.4E1,8.9E1,4.1E1,1.35E2,4.9E1,4.7E1,5.8E1,4.4E1,3.6E1,3.2E1,4.6E1,4.8E1,4.7E1,4.7E1,3.2E1,5.7E1,5E0,3.6E1,7.9E1,5.6E1,3.7E1,2.1E1,4.3E1,1E0,3.5E1,1E0,2.5E1,7E0,2.3E1,2.3E1,3.5E1,1.3E1,2.8E1,1.9E1,3.2E1,1.5E1,2.8E1,4E0,2E0,5.5E1,2E0,3.4E1,5.1E1,2.8E1,1.6E1,4E1,2E0,3.3E1,2E0,2.3E1,6E0,1E0,1.1E1,1.2E1,1.7E1,6E0,2.7E1,8E0,3E0,1E1,2.7E1,1E0,1.6E1,3E0,3E0,2.9E1,1.3E1,2E0,1.7E1,1.1E1,1E0,1E0,5.3E1,2E0,1.5E1,1.9E1,4.3E1,8E0,1E1,1.8E1,1.4E1,2E0,3.1E1,9E0,1E0,1E0,1E0,3.2E1,1E0,1E0,7E0,4E0,1.1E1,1E0,3E0,1.4E1,4E0,2E0,3E0,2.4E1,5E0,3E0,2E0,1E0,2E0,8E0,1.9E1,8E0,5E0,1.1E1,2E0,1E0,1E0,2E0,1.7E1,1.2E1,1E0,1.2E1,1E0,1E0,8E0,9E0,8E0,3E0,3.8E1,1.5E1,1E0,1E0,5E0,1.4E1,1E0,7E0,6E0,4E0,1.3E1,1E0,1E0,3E1,6E0,3E0],"tree_param":{"num_deleted":"0","num_feature":"17","num_nodes":"151","size_leaf_vector":"1"}},{"base_weights":[5.2346414E-1,-1.18015144E2,1.1938989E2,-1.8077301E2,-5.4605267E1,5.7828995E1,1.8271088E2,-1.0915554E1,-1.4887837E2,-8.522471E1,-2.5989513E1,3.1085495E1,8.54157E1,1.4397096E2,1.9641623E2,-6.547072E0,-8.373908E0,-6.968859E1,-1.0095575E2,-1.2753381E1,-3.8155E1,4.67323E1,1.4791074E1,6.643301E1,9.4743515E1,1.4572571E2,1.4497063E0,2.1411125E2,1.6984209E2,-8.207852E1,-4.516712E1,-5.148477E0,-2.0562277E0,-2.7454826E1,2.4794567E0,-5.0002617E1,-4.9643426E0,3.6343098E1,7.8373886E1,-1.390944E0,4.7242043E1,5.5489193E1,5.8310256E0,1.4847321E1,9.7331825E1,7.2299995E1,1.4894261E2,1.8405597E2,2.3559389E2,1.108359E2,1.8510359E2,-9.0308624E1,-5.658745E1,-1.1151817E1,-5.122673E1,-5.88059E0,-4.5257595E1,-9.357537E0,3.2563232E1,-5.8150986E1,-1.909629E1,-3.778694E1,7.422452E0,5.0570107E1,1.1157013E1,1.8837837E0,4.446313E0,4.5377266E1,-7.5803404E0,5.8470177E1,-2.090326E1,7.543862E1,2.0940948E1,1.5100571E0,-3.9650804E-1,1.0830461E2,7.545094E1,1.070939E0,4.1060405E0,1.3361261E2,1.8557329E2,1.9346869E2,3.1370118E0,1.6520992E2,1.286722E1,3.2258613E0,1.3751025E2,1.9296274E2,3.0118089E0,-1.1739876E0,-4.623804E0,-3.0808327E0,-1.2156876E0,-9.27166E-1,-1.2534384E-1,-2.7786894E0,2.4080124E-1,-1.2270943E0,1.25768E0,-2.596789E0,8.7201387E-1,1.0900625E-1,-1.3899797E0,-5.003128E-1,2.579614E0,-2.1308506E0,-3.6398284E0,-1.408615E0,4.2232463E-1,-2.2394202E0,-4.1956407E-1,1.0051891E0,-5.90795E-1,-4.2837524E-1,2.9713156E0,-4.4414368E-1,2.650668E0,6.9755024E-1,2.5601175E0,-1.0490738E0,1.0660039E0,8.3232766E-1,3.418165E0,-1.9695054E-1,-1.3707939E0,4.455849E0,1.6614541E0,1.3808643E0,-4.1469118E-1,5.738961E0,4.912008E-2,9.4235975E-1,4.77497E0,5.3456078E0,8.193288E0,4.268545E0,1.0623891E1,1.0007515E1,4.83299E0,9.005921E0,3.022246E0,7.492706E0,1.2775803E0,9.827468E0,1.327124E0],"categories":[],"categories_nodes":[],"categories_segments":[],"categories_sizes":[],"default_left":[0,0,0,0,0,0,0,0,0,0,0,0,0,0,0,0,0,0,0,0,0,0,0,0,0,0,0,0,0,0,0,0,0,0,0,0,0,0,0,0,0,0,0,0,0,0,0,0,0,0,0,0,0,0,0,0,0,0,0,0,0,0,0,0,0,0,0,0,0,0,0,0,0,0,0,0,0,0,0,0,0,0,0,0,0,0,0,0,0,0,0,0,0,0,0,0,0,0,0,0,0,0,0,0,0,0,0,0,0,0,0,0,0,0,0,0,0,0,0,0,0,0,0,0,0,0,0,0,0,0,0,0,0,0,0,0,0,0,0,0,0,0,0,0,0],"id":5,"left_children":[1,3,5,7,9,11,13,-1,15,17,19,21,23,25,27,-1,-1,29,31,33,35,37,39,41,43,45,-1,47,49,51,53,-1,-1,55,57,59,61,63,65,67,69,71,-1,73,75,77,79,81,83,85,87,89,91,93,95,97,99,101,103,105,107,109,111,113,115,-1,-1,117,119,121,123,125,127,-1,-1,129,131,-1,-1,133,135,137,-1,139,-1,-1,141,143,-1,-1,-1,-1,-1,-1,-1,-1,-1,-1,-1,-1,-1,-1,-1,-1,-1,-1,-1,-1,-1,-1,-1,-1,-1,-1,-1,-1,-1,-1,-1,-1,-1,-1,-1,-1,-1,-1,-1,-1,-1,-1,-1,-1,-1,-1,-1,-1,-1,-1,-1,-1,-1,-1,-1,-1,-1],"loss_changes":[1.0159078E7,1.426717E6,1.3927485E6,1.84203E5,1.5637694E5,1.330935E5,6.5699E4,0E0,1.1766E4,1.422725E4,1.481068E4,2.3529562E4,9.642E3,5.8625625E3,2.3824E4,0E0,0E0,1.0572266E4,7.054375E2,1.0593476E4,1.902004E4,1.2930734E4,2.5271574E4,1.1653844E4,1.05490625E4,8.05375E2,0E0,3.77125E3,2.9913125E4,1.1834844E3,3.138879E3,0E0,0E0,8.951807E3,8.851146E3,7.9556406E3,5.9724067E3,1.3052047E4,1.3737266E3,9.896386E3,1.3464531E4,1.8407562E4,0E0,1.2886641E3,5.2735625E3,2.3985156E2,1.036375E3,2.7828625E4,1.718875E4,8.425516E3,3.0574875E4,8.705E2,1.2497656E2,2.0911057E2,3.921961E3,7.566975E3,6.3489766E3,3.8906147E3,6.186643E3,3.2677422E3,2.4877637E3,4.4741797E2,2.921191E3,1.307877E4,1.3052857E4,0E0,0E0,1.7918945E1,1.2066279E4,4.654711E3,2.2345361E2,7.4311562E3,2.571227E3,0E0,0E0,2.4207656E4,2.3166094E4,0E0,0E0,1.15605625E4,1.15154375E4,1.3525E3,0E0,7.8554375E3,0E0,0E0,7.227E3,1.8658375E4,0E0,0E0,0E0,0E0,0E0,0E0,0E0,0E0,0E0,0E0,0E0,0E0,0E0,0E0,0E0,0E0,0E0,0E0,0E0,0E0,0E0,0E0,0E0,0E0,0E0,0E0,0E0,0E0,0E0,0E0,0E0,0E0,0E0,0E0,0E0,0E0,0E0,0E0,0E0,0E0,0E0,0E0,0E0,0E0,0E0,0E0,0E0,0E0,0E0,0E0,0E0,0E0,0E0,0E0,0E0,0E0,0E0],"parents":[2147483647,0,0,1,1,2,2,3,3,4,4,5,5,6,6,8,8,9,9,10,10,11,11,12,12,13,13,14,14,17,17,18,18,19,19,20,20,21,21,22,22,23,23,24,24,25,25,27,27,28,28,29,29,30,30,33,33,34,34,35,35,36,36,37,37,38,38,39,39,40,40,41,41,43,43,44,44,45,45,46,46,47,47,48,48,49,49,50,50,51,51,52,52,53,53,54,54,55,55,56,56,57,57,58,58,59,59,60,60,61,61,62,62,63,63,64,64,67,67,68,68,69,69,70,70,71,71,72,72,75,75,76,76,79,79,80,80,81,81,83,83,86,86,87,87],"right_children":[2,4,6,8,10,12,14,-1,16,18,20,22,24,26,28,-1,-1,30,32,34,36,38,40,42,44,46,-1,48,50,52,54,-1,-1,56,58,60,62,64,66,68,70,72,-1,74,76,78,80,82,84,86,88,90,92,94,96,98,100,102,104,106,108,110,112,114,116,-1,-1,118,120,122,124,126,128,-1,-1,130,132,-1,-1,134,136,138,-1,140,-1,-1,142,144,-1,-1,-1,-1,-1,-1,-1,-1,-1,-1,-1,-1,-1,-1,-1,-1,-1,-1,-1,-1,-1,-1,-1,-1,-1,-1,-1,-1,-1,-1,-1,-1,-1,-1,-1,-1,-1,-1,-1,-1,-1,-1,-1,-1,-1,-1,-1,-1,-1,-1,-1,-1,-1,-1,-1,-1,-1],"split_conditions":[1.03E2,5.7E1,1.45E2,3E1,8E1,1.25E2,1.55E2,-1.0915554E1,1E0,1E0,1E0,1E0,1.31E2,9.6E1,1E0,-6.547072E0,-8.373908E0,7E1,7.9E1,8.9E1,9.8E1,8.7E1,1E0,5.1E1,6E0,1.1E1,1.4497063E0,4.19E0,1.1E1,1E0,1.6E1,-5.148477E0,-2.0562277E0,3.4E1,1E0,8E1,3.2E1,4.9E1,1.07E2,2.6E1,8.9E1,2.3E1,5.8310256E0,6E1,1E0,4.6E1,4.53E0,4.13E0,1.63E2,5.4E1,9.7E1,4E0,6.6E1,4.3E1,8.9E1,5.9E1,8.9E1,9.7E1,8E0,1E0,7.9E1,1.2E1,1E0,1.6E1,1E0,1.8837837E0,4.446313E0,2.3E1,4.57E0,1.2E1,2.4E1,1E0,9.6E1,1.5100571E0,-3.9650804E-1,4.89E0,4.6E1,1.070939E0,4.1060405E0,7.2E1,1.48E2,9.4E1,3.1370118E0,1E0,1.286722E1,3.2258613E0,9E0,6.5E1,3.0118089E0,-1.1739876E0,-4.623804E0,-3.0808327E0,-1.2156876E0,-9.27166E-1,-1.2534384E-1,-2.7786894E0,2.4080124E-1,-1.2270943E0,1.25768E0,-2.596789E0,8.7201387E-1,1.0900625E-1,-1.3899797E0,-5.003128E-1,2.579614E0,-2.1308506E0,-3.6398284E0,-1.408615E0,4.2232463E-1,-2.2394202E0,-4.1956407E-1,1.0051891E0,-5.90795E-1,-4.2837524E-1,2.9713156E0,-4.4414368E-1,2.650668E0,6.9755024E-1,2.5601175E0,-1.0490738E0,1.0660039E0,8.3232766E-1,3.418165E0,-1.9695054E-1,-1.3707939E0,4.455849E0,1.6614541E0,1.3808643E0,-4.1469118E-1,5.738961E0,4.912008E-2,9.4235975E-1,4.77497E0,5.3456078E0,8.193288E0,4.268545E0,1.0623891E1,1.0007515E1,4.83299E0,9.005921E0,3.022246E0,7.492706E0,1.2775803E0,9.827468E0,1.327124E0],"split_indices":[4,4,4,4,4,4,4,0,15,15,15,15,4,0,15,0,0,4,4,4,4,0,7,1,1,2,0,3,1,7,2,0,0,2,11,2,2,0,4,0,2,1,0,0,15,0,3,3,4,0,0,2,4,0,2,0,2,4,2,10,0,1,10,2,11,0,0,0,3,2,0,14,0,0,0,3,0,0,0,2,4,2,0,12,0,0,1,1,0,0,0,0,0,0,0,0,0,0,0,0,0,0,0,0,0,0,0,0,0,0,0,0,0,0,0,0,0,0,0,0,0,0,0,0,0,0,0,0,0,0,0,0,0,0,0,0,0,0,0,0,0,0,0,0,0],"split_type":[0,0,0,0,0,0,0,0,0,0,0,0,0,0,0,0,0,0,0,0,0,0,0,0,0,0,0,0,0,0,0,0,0,0,0,0,0,0,0,0,0,0,0,0,0,0,0,0,0,0,0,0,0,0,0,0,0,0,0,0,0,0,0,0,0,0,0,0,0,0,0,0,0,0,0,0,0,0,0,0,0,0,0,0,0,0,0,0,0,0,0,0,0,0,0,0,0,0,0,0,0,0,0,0,0,0,0,0,0,0,0,0,0,0,0,0,0,0,0,0,0,0,0,0,0,0,0,0,0,0,0,0,0,0,0,0,0,0,0,0,0,0,0,0,0],"sum_hessian":[7.19E2,3.6E2,3.59E2,1.8E2,1.8E2,1.83E2,1.76E2,8E1,1E2,8.6E1,9.4E1,9.4E1,8.9E1,4.9E1,1.27E2,5.5E1,4.5E1,4.6E1,4E1,4.6E1,4.8E1,4.7E1,4.7E1,3.2E1,5.7E1,4.8E1,1E0,7.2E1,5.5E1,2.9E1,1.7E1,3.8E1,2E0,2.3E1,2.3E1,3.5E1,1.3E1,3.7E1,1E1,3.2E1,1.5E1,2.8E1,4E0,2E0,5.5E1,3E0,4.5E1,3.4E1,3.8E1,1.3E1,4.2E1,2E1,9E0,3E0,1.4E1,1.1E1,1.2E1,1.7E1,6E0,2.7E1,8E0,3E0,1E1,2.3E1,1.4E1,3E0,7E0,3E0,2.9E1,1.3E1,2E0,1.7E1,1.1E1,1E0,1E0,3.4E1,2.1E1,1E0,2E0,3.5E1,1E1,3.1E1,3E0,1.1E1,2.7E1,6E0,7E0,3.9E1,3E0,1E0,1.9E1,7E0,2E0,1E0,2E0,1.3E1,1E0,7E0,4E0,1.1E1,1E0,1.1E1,6E0,2E0,4E0,1.5E1,1.2E1,6E0,2E0,2E0,1E0,6E0,4E0,3E0,2E1,1E1,4E0,1E0,2E0,2E1,9E0,3E0,1E1,1E0,1E0,1.2E1,5E0,9E0,2E0,3.2E1,2E0,6E0,1.5E1,2.1E1,1.4E1,3E0,7E0,2.8E1,3E0,9E0,2E0,6E0,1E0,3.8E1,1E0],"tree_param":{"num_deleted":"0","num_feature":"17","num_nodes":"145","size_leaf_vector":"1"}},{"base_weights":[6.223471E-1,-1.1227124E2,1.138278E2,-1.662864E2,-4.563757E1,5.516891E1,1.7416344E2,-2.0134372E2,-1.3165683E2,-7.367352E1,-2.4794222E1,2.9710558E1,8.142863E1,1.3747357E2,1.8713477E2,-1.0899042E1,-8.665161E0,-7.4552507E0,-1.1719899E2,-5.8485447E1,-8.847005E1,-1.2134772E1,-3.6430954E1,4.462651E1,1.41756315E1,6.3502705E1,9.0223915E1,1.391253E2,1.4134636E0,2.0399298E2,1.6181718E2,-5.0595584E0,-6.6225696E0,-6.037091E1,2.347809E-1,-9.627129E1,-5.2057236E1,-2.5661188E1,3.0954523E0,-4.7690178E1,-4.8764563E0,3.4650932E1,7.503065E1,-1.2221689E0,4.504762E1,5.2958996E1,5.5977845E0,1.0069705E2,6.342659E1,6.997923E1,1.4211354E2,8.86507E0,2.2650096E2,1.10576485E2,1.7786679E2,-1.440742E1,-6.2650898E1,-3.9221256E1,-9.939124E1,-2.788383E0,-6.5210724E-1,-3.754066E1,4.2752724E0,1.7652998E1,-2.1511065E1,-5.412708E1,-1.3290566E1,-3.6562347E1,7.089E0,4.2273552E1,-5.1454644E0,1.8131417E0,4.2517867E0,2.6024683E0,-6.338054E0,5.585028E1,-2.0380676E1,7.2006546E1,1.997442E1,8.819443E1,7.8423076E0,2.3238177E0,9.144911E1,1.044165E0,3.9691722E0,1.2730805E2,1.7764847E2,1.5451312E2,1.241229E1,1.2210392E2,9.961487E-1,1.9498126E2,1.05313805E2,-9.039871E-1,-1.7656937E-1,-3.343155E0,-2.0301683E0,-3.475975E-1,-2.5939968E0,-5.0644374E0,-1.3937149E0,-2.19525E0,4.4580078E-1,-1.5367154E0,2.3484216E0,1.6084973E0,2.2002988E-1,-1.566658E0,1.4266427E0,-1.9634207E0,-3.4151764E0,-1.1752878E0,4.0824685E-1,-2.164773E0,-4.0907517E-1,1.6514511E0,-1.1726701E-1,1.3903749E0,3.3681304E0,1.2781388E0,-1.1270658E0,-1.5957415E0,6.953554E-1,-2.0196457E-1,3.0383945E0,-1.9202653E-1,-1.3365242E0,3.9531193E0,5.1866096E-1,2.0415661E0,4.2426538E-1,4.955764E0,2.2816265E0,-8.0256003E-1,1.0058941E0,7.847679E-1,5.6302853E0,5.0904765E0,7.8109336E0,4.1084743E0,1.0159096E1,3.0046818E0,9.120437E0,6.3937316E0,1.1771172E0,9.991967E0,1.1095132E0,2.8879447E0,8.110323E0],"categories":[],"categories_nodes":[],"categories_segments":[],"categories_sizes":[],"default_left":[0,0,0,0,0,0,0,0,0,0,0,0,0,0,0,0,0,0,0,0,0,0,0,0,0,0,0,0,0,0,0,0,0,0,0,0,0,0,0,0,0,0,0,0,0,0,0,0,0,0,0,0,0,0,0,0,0,0,0,0,0,0,0,0,0,0,0,0,0,0,0,0,0,0,0,0,0,0,0,0,0,0,0,0,0,0,0,0,0,0,0,0,0,0,0,0,0,0,0,0,0,0,0,0,0,0,0,0,0,0,0,0,0,0,0,0,0,0,0,0,0,0,0,0,0,0,0,0,0,0,0,0,0,0,0,0,0,0,0,0,0,0,0,0,0,0,0,0,0],"id":6,"left_children":[1,3,5,7,9,11,13,15,17,19,21,23,25,27,29,-1,-1,-1,31,33,35,37,39,41,43,45,47,49,-1,51,53,-1,-1,55,-1,57,59,61,63,65,67,69,71,73,75,77,-1,79,81,83,85,-1,87,89,91,93,95,97,99,-1,-1,101,103,105,107,109,111,113,115,117,119,-1,-1,-1,121,123,125,127,129,131,-1,133,135,-1,-1,137,139,141,-1,143,-1,145,147,-1,-1,-1,-1,-1,-1,-1,-1,-1,-1,-1,-1,-1,-1,-1,-1,-1,-1,-1,-1,-1,-1,-1,-1,-1,-1,-1,-1,-1,-1,-1,-1,-1,-1,-1,-1,-1,-1,-1,-1,-1,-1,-1,-1,-1,-1,-1,-1,-1,-1,-1,-1,-1,-1,-1,-1],"loss_changes":[9.214502E6,1.2917325E6,1.2645115E6,2.150815E5,9.34245E4,1.2059006E5,5.8511E4,7.475E3,8.508E3,1.03321875E4,1.35528125E4,2.1380617E4,8.46025E3,5.0858125E3,2.1622E4,0E0,0E0,0E0,1.4906875E3,4.691117E3,4.362547E3,9.76192E3,1.7176113E4,1.1958477E4,2.2872371E4,1.0929781E4,9.8909375E3,1.796875E2,0E0,3.6975E3,2.6386125E4,0E0,0E0,2.8700312E3,0E0,7.2959375E2,4.3076953E2,9.05123E3,8.618577E3,7.251992E3,5.567097E3,1.1744922E4,1.1829883E3,9.323417E3,1.2447064E4,1.6781695E4,0E0,1.42475E4,3.232032E4,1.8904492E2,1.5850625E3,0E0,1.7996E4,1.4287359E4,3.037575E4,5.5974304E1,4.4265625E2,8.6479346E2,4.3353125E2,0E0,0E0,5.7134453E3,1.3400898E4,2.7441987E3,5.3178496E3,3.637125E3,1.7261273E3,4.1014355E2,2.7694614E3,9.740891E3,4.31559E3,0E0,0E0,0E0,1.6495828E4,4.3686445E3,2.1242114E2,7.0076094E3,2.529061E3,1.1745531E4,0E0,2.6116802E3,1.9067594E4,0E0,0E0,1.06338125E4,1.0121625E4,1.8011156E4,0E0,4.952328E3,0E0,2.2427375E4,1.7686383E4,0E0,0E0,0E0,0E0,0E0,0E0,0E0,0E0,0E0,0E0,0E0,0E0,0E0,0E0,0E0,0E0,0E0,0E0,0E0,0E0,0E0,0E0,0E0,0E0,0E0,0E0,0E0,0E0,0E0,0E0,0E0,0E0,0E0,0E0,0E0,0E0,0E0,0E0,0E0,0E0,0E0,0E0,0E0,0E0,0E0,0E0,0E0,0E0,0E0,0E0,0E0,0E0,0E0,0E0,0E0,0E0],"parents":[2147483647,0,0,1,1,2,2,3,3,4,4,5,5,6,6,7,7,8,8,9,9,10,10,11,11,12,12,13,13,14,14,18,18,19,19,20,20,21,21,22,22,23,23,24,24,25,25,26,26,27,27,29,29,30,30,33,33,35,35,36,36,37,37,38,38,39,39,40,40,41,41,42,42,43,43,44,44,45,45,47,47,48,48,49,49,50,50,52,52,53,53,54,54,55,55,56,56,57,57,58,58,61,61,62,62,63,63,64,64,65,65,66,66,67,67,68,68,69,69,70,70,74,74,75,75,76,76,77,77,78,78,79,79,81,81,82,82,85,85,86,86,87,87,89,89,91,91,92,92],"right_children":[2,4,6,8,10,12,14,16,18,20,22,24,26,28,30,-1,-1,-1,32,34,36,38,40,42,44,46,48,50,-1,52,54,-1,-1,56,-1,58,60,62,64,66,68,70,72,74,76,78,-1,80,82,84,86,-1,88,90,92,94,96,98,100,-1,-1,102,104,106,108,110,112,114,116,118,120,-1,-1,-1,122,124,126,128,130,132,-1,134,136,-1,-1,138,140,142,-1,144,-1,146,148,-1,-1,-1,-1,-1,-1,-1,-1,-1,-1,-1,-1,-1,-1,-1,-1,-1,-1,-1,-1,-1,-1,-1,-1,-1,-1,-1,-1,-1,-1,-1,-1,-1,-1,-1,-1,-1,-1,-1,-1,-1,-1,-1,-1,-1,-1,-1,-1,-1,-1,-1,-1,-1,-1,-1,-1],"split_conditions":[1.03E2,6.3E1,1.45E2,3.4E1,8E1,1.25E2,1.55E2,2.3E1,4.6E1,1E0,1E0,1E0,1.31E2,9.6E1,1E0,-1.0899042E1,-8.665161E0,-7.4552507E0,1E0,9.8E1,7.8E1,6E1,9.8E1,8.7E1,1E0,5.1E1,7.2E1,1.1E1,1.4134636E0,4.22E0,1.4E1,-5.0595584E0,-6.6225696E0,6E0,2.347809E-1,1.6E1,1E0,9.3E1,4.41E0,8.1E1,3.2E1,7.1E1,1.07E2,3.54E0,8.9E1,2.3E1,5.5977845E0,6.4E1,4.1E1,4.6E1,4.53E0,8.86507E0,1.63E2,1E0,4.2E1,4.3E1,8.3E1,6.1E1,9.2E1,-2.788383E0,-6.5210724E-1,1E0,1E0,4.08E0,4.92E0,8.8E1,7.9E1,1.2E1,2.3E1,1E0,1.11E2,1.8131417E0,4.2517867E0,2.6024683E0,4.33E0,9E0,2.4E1,1E0,5.7E1,6.8E1,7.8423076E0,4.31E0,4E0,1.044165E0,3.9691722E0,7.2E1,1.48E2,1E0,1.241229E1,4.77E0,9.961487E-1,4.93E0,1E0,-9.039871E-1,-1.7656937E-1,-3.343155E0,-2.0301683E0,-3.475975E-1,-2.5939968E0,-5.0644374E0,-1.3937149E0,-2.19525E0,4.4580078E-1,-1.5367154E0,2.3484216E0,1.6084973E0,2.2002988E-1,-1.566658E0,1.4266427E0,-1.9634207E0,-3.4151764E0,-1.1752878E0,4.0824685E-1,-2.164773E0,-4.0907517E-1,1.6514511E0,-1.1726701E-1,1.3903749E0,3.3681304E0,1.2781388E0,-1.1270658E0,-1.5957415E0,6.953554E-1,-2.0196457E-1,3.0383945E0,-1.9202653E-1,-1.3365242E0,3.9531193E0,5.1866096E-1,2.0415661E0,4.2426538E-1,4.955764E0,2.2816265E0,-8.0256003E-1,1.0058941E0,7.847679E-1,5.6302853E0,5.0904765E0,7.8109336E0,4.1084743E0,1.0159096E1,3.0046818E0,9.120437E0,6.3937316E0,1.1771172E0,9.991967E0,1.1095132E0,2.8879447E0,8.110323E0],"split_indices":[4,4,4,4,4,4,4,4,4,15,15,15,4,0,15,0,0,0,15,2,0,0,4,0,7,1,0,2,0,3,1,0,0,2,0,2,10,4,3,2,2,0,4,3,2,1,0,0,2,0,3,0,4,12,1,0,0,0,2,0,0,13,11,3,3,4,0,1,0,10,4,0,0,0,3,2,0,8,0,2,0,3,3,0,0,2,4,11,0,3,0,3,9,0,0,0,0,0,0,0,0,0,0,0,0,0,0,0,0,0,0,0,0,0,0,0,0,0,0,0,0,0,0,0,0,0,0,0,0,0,0,0,0,0,0,0,0,0,0,0,0,0,0,0,0,0,0,0,0],"split_type":[0,0,0,0,0,0,0,0,0,0,0,0,0,0,0,0,0,0,0,0,0,0,0,0,0,0,0,0,0,0,0,0,0,0,0,0,0,0,0,0,0,0,0,0,0,0,0,0,0,0,0,0,0,0,0,0,0,0,0,0,0,0,0,0,0,0,0,0,0,0,0,0,0,0,0,0,0,0,0,0,0,0,0,0,0,0,0,0,0,0,0,0,0,0,0,0,0,0,0,0,0,0,0,0,0,0,0,0,0,0,0,0,0,0,0,0,0,0,0,0,0,0,0,0,0,0,0,0,0,0,0,0,0,0,0,0,0,0,0,0,0,0,0,0,0,0,0,0,0],"sum_hessian":[7.19E2,3.6E2,3.59E2,1.98E2,1.62E2,1.83E2,1.76E2,9.6E1,1.02E2,6.8E1,9.4E1,9.4E1,8.9E1,4.9E1,1.27E2,5.6E1,4E1,4.2E1,6E1,3.6E1,3.2E1,4.6E1,4.8E1,4.7E1,4.7E1,3.2E1,5.7E1,4.8E1,1E0,7.2E1,5.5E1,3.3E1,2.7E1,3.5E1,1E0,2.5E1,7E0,2.4E1,2.2E1,3.5E1,1.3E1,3.7E1,1E1,3.2E1,1.5E1,2.8E1,4E0,3.9E1,1.8E1,3E0,4.5E1,3.7E1,3.5E1,1.5E1,4E1,2E0,3.3E1,2E0,2.3E1,6E0,1E0,1.7E1,7E0,1.4E1,8E0,2.9E1,6E0,3E0,1E1,3.1E1,6E0,3E0,7E0,2E0,3E1,1.3E1,2E0,1.7E1,1.1E1,3.4E1,5E0,6E0,1.2E1,1E0,2E0,3.5E1,1E1,1E1,2.5E1,1.3E1,2E0,3.1E1,9E0,1E0,1E0,2.6E1,7E0,1E0,1E0,2.2E1,1E0,1.5E1,2E0,4E0,3E0,6E0,8E0,7E0,1E0,1.6E1,1.3E1,4E0,2E0,2E0,1E0,2E0,8E0,2.1E1,1E1,2E0,4E0,1.3E1,1.7E1,1E0,1.2E1,1E0,1E0,1.5E1,2E0,3E0,8E0,2.6E1,8E0,3E0,3E0,3E0,9E0,2.1E1,1.4E1,3E0,7E0,3E0,7E0,1.2E1,1E0,3E1,1E0,6E0,3E0],"tree_param":{"num_deleted":"0","num_feature":"17","num_nodes":"149","size_leaf_vector":"1"}},{"base_weights":[7.0468485E-1,-1.068355E2,1.0854164E2,-1.5816655E2,-4.35121E1,5.267252E1,1.6600703E2,-1.9147821E2,-1.2525979E2,-7.0266075E1,-2.3622244E1,2.8372232E1,7.773757E1,1.2698328E2,1.7683786E2,-8.412588E0,-1.0584167E1,-7.091156E0,-1.1153055E2,-5.572926E1,-8.4435646E1,-1.151206E1,-3.4756046E1,2.1047735E1,5.853549E1,6.070743E1,8.608684E1,2.5825422E0,1.3576736E2,1.9163371E2,1.5296931E2,-4.81402E0,-6.3032675E0,-5.753164E1,2.289116E-1,-9.181927E1,-4.988443E1,-2.4415638E1,3.0140924E0,-4.5476383E1,-4.7068896E0,-2.6097534E1,2.606343E1,-1.2757348E0,6.4980484E1,5.0550274E1,5.373873E0,1.2562633E1,8.8488365E1,1.6255754E2,1.0761497E2,1.7243776E2,2.19446E2,9.9567986E1,1.6804027E2,-1.4047231E1,-5.967639E1,-3.8240726E1,-9.469078E1,-2.6688802E0,-6.358048E-1,-3.576082E1,4.1629715E0,1.6892252E1,-2.0451073E1,-5.293405E1,-1.7221819E1,-3.5377693E1,6.874029E0,6.6272813E-1,-3.361277E1,5.105851E1,1.661117E1,3.788216E1,7.631755E1,6.865465E1,1.9181192E1,1.3484116E0,-4.0621415E-1,9.67071E1,6.1897327E1,1.018061E0,8.508613E0,4.856038E1,6.1517253E0,1.8056865E2,1.1352699E2,1.5829643E2,1.216493E1,2.8894086E0,1.2100029E2,1.7523975E2,2.7017677E0,-8.8138735E-1,-1.7215501E-1,-7.4175644E-1,-3.0292833E0,-3.3890763E-1,-2.529147E0,-4.822226E0,-1.3588723E0,-2.0923474E0,4.3094078E-1,-1.4752469E0,2.2603557E0,1.539562E0,2.1025069E-1,-2.3520348E0,3.419266E-2,-1.907174E0,-3.3532994E0,-1.2217535E-1,-1.7541916E0,-2.0926142E0,-3.9884797E-1,9.5450205E-1,-5.801596E-1,-2.100761E0,-4.2022195E-1,-1.8300508E-1,3.294707E0,-1.4187195E0,1.2036817E0,2.1947725E0,4.506073E-2,2.1497514E0,4.4608426E0,1.9579636E0,4.4167514E0,1.9650074E0,4.0540957E-1,5.477621E0,3.2054412E0,6.4560634E-1,4.499862E0,-6.2820435E-2,2.938751E0,9.116839E0,2.613463E0,6.4225E0,2.0432165E0,9.679523E0,3.8612752E0,6.5348177E0,1.0857972E0,1.0009301E0,8.935325E0],"categories":[],"categories_nodes":[],"categories_segments":[],"categories_sizes":[],"default_left":[0,0,0,0,0,0,0,0,0,0,0,0,0,0,0,0,0,0,0,0,0,0,0,0,0,0,0,0,0,0,0,0,0,0,0,0,0,0,0,0,0,0,0,0,0,0,0,0,0,0,0,0,0,0,0,0,0,0,0,0,0,0,0,0,0,0,0,0,0,0,0,0,0,0,0,0,0,0,0,0,0,0,0,0,0,0,0,0,0,0,0,0,0,0,0,0,0,0,0,0,0,0,0,0,0,0,0,0,0,0,0,0,0,0,0,0,0,0,0,0,0,0,0,0,0,0,0,0,0,0,0,0,0,0,0,0,0,0,0,0,0,0,0,0,0,0,0],"id":7,"left_children":[1,3,5,7,9,11,13,15,17,19,21,23,25,27,29,-1,-1,-1,31,33,35,37,39,41,43,45,47,-1,49,51,53,-1,-1,55,-1,57,59,61,63,65,67,69,71,-1,73,75,-1,77,79,81,83,85,87,89,91,93,95,97,99,-1,-1,101,103,105,107,109,111,113,115,-1,117,119,121,123,125,127,129,-1,-1,131,133,-1,-1,135,-1,137,139,141,-1,-1,143,145,-1,-1,-1,-1,-1,-1,-1,-1,-1,-1,-1,-1,-1,-1,-1,-1,-1,-1,-1,-1,-1,-1,-1,-1,-1,-1,-1,-1,-1,-1,-1,-1,-1,-1,-1,-1,-1,-1,-1,-1,-1,-1,-1,-1,-1,-1,-1,-1,-1,-1,-1,-1,-1,-1,-1],"loss_changes":[8.361297E6,1.166533E6,1.147051E6,1.941555E5,8.507778E4,1.09866625E5,5.23545E4,9.90525E3,7.60475E3,9.507125E3,1.2408961E4,1.9756383E4,7.570875E3,2.078E4,1.87155E4,0E0,0E0,0E0,1.3835E3,4.2851953E3,3.8383906E3,8.88324E3,1.5570668E4,1.9124566E4,1.1408602E4,1.0243664E4,9.129469E3,0E0,1.0412125E4,4.87E3,2.9142625E4,0E0,0E0,2.5191797E3,0E0,3.7909375E2,3.5993164E2,8.254608E3,7.8354917E3,6.674047E3,5.215932E3,2.8114453E3,1.5926316E4,0E0,2.3315938E3,1.5152719E4,0E0,1.1131198E3,6.252625E3,1.4942344E4,1.3147859E4,4.408375E3,3.785375E3,6.4391875E3,2.582425E4,5.3210754E1,4.875E2,8.2209424E2,2.2051562E2,0E0,0E0,5.2224746E3,1.2388797E4,2.5156187E3,5.0898955E3,3.294414E3,2.2900059E3,3.7578027E2,2.7044028E3,0E0,1.1295679E3,1.5665102E4,1.8475336E4,1.517081E3,8.923242E2,6.9895156E3,2.3546733E3,0E0,0E0,1.0144844E4,2.0861621E4,0E0,0E0,3.1270068E3,0E0,4.50875E2,4.510078E3,1.6524375E4,0E0,0E0,5.825797E3,1.7947E4,0E0,0E0,0E0,0E0,0E0,0E0,0E0,0E0,0E0,0E0,0E0,0E0,0E0,0E0,0E0,0E0,0E0,0E0,0E0,0E0,0E0,0E0,0E0,0E0,0E0,0E0,0E0,0E0,0E0,0E0,0E0,0E0,0E0,0E0,0E0,0E0,0E0,0E0,0E0,0E0,0E0,0E0,0E0,0E0,0E0,0E0,0E0,0E0,0E0,0E0,0E0,0E0,0E0,0E0,0E0],"parents":[2147483647,0,0,1,1,2,2,3,3,4,4,5,5,6,6,7,7,8,8,9,9,10,10,11,11,12,12,13,13,14,14,18,18,19,19,20,20,21,21,22,22,23,23,24,24,25,25,26,26,28,28,29,29,30,30,33,33,35,35,36,36,37,37,38,38,39,39,40,40,41,41,42,42,44,44,45,45,47,47,48,48,49,49,50,50,51,51,52,52,53,53,54,54,55,55,56,56,57,57,58,58,61,61,62,62,63,63,64,64,65,65,66,66,67,67,68,68,70,70,71,71,72,72,73,73,74,74,75,75,76,76,79,79,80,80,83,83,85,85,86,86,87,87,90,90,91,91],"right_children":[2,4,6,8,10,12,14,16,18,20,22,24,26,28,30,-1,-1,-1,32,34,36,38,40,42,44,46,48,-1,50,52,54,-1,-1,56,-1,58,60,62,64,66,68,70,72,-1,74,76,-1,78,80,82,84,86,88,90,92,94,96,98,100,-1,-1,102,104,106,108,110,112,114,116,-1,118,120,122,124,126,128,130,-1,-1,132,134,-1,-1,136,-1,138,140,142,-1,-1,144,146,-1,-1,-1,-1,-1,-1,-1,-1,-1,-1,-1,-1,-1,-1,-1,-1,-1,-1,-1,-1,-1,-1,-1,-1,-1,-1,-1,-1,-1,-1,-1,-1,-1,-1,-1,-1,-1,-1,-1,-1,-1,-1,-1,-1,-1,-1,-1,-1,-1,-1,-1,-1,-1,-1,-1],"split_conditions":[1.03E2,6.3E1,1.45E2,3.4E1,8E1,1.25E2,1.54E2,1E0,4.6E1,1E0,1E0,8.7E1,1.31E2,8E0,1E0,-8.412588E0,-1.0584167E1,-7.091156E0,1E0,9.8E1,7.8E1,6E1,9.8E1,1.1E1,7E0,5.1E1,6E0,2.5825422E0,6.2E1,4.45E0,1.1E1,-4.81402E0,-6.3032675E0,6E0,2.289116E-1,1.6E1,1E0,9.3E1,4.41E0,8E1,3.2E1,9E0,1.1E1,-1.2757348E0,9E1,2.3E1,5.373873E0,6E1,1E0,1.1E1,1.7E1,8.8E1,1.63E2,5.4E1,9.7E1,4.3E1,2.2E1,6.1E1,9.2E1,-2.6688802E0,-6.358048E-1,1E0,1E0,4.08E0,4.66E0,1E0,9.1E1,1.2E1,1E0,6.6272813E-1,5.7E1,7E0,1.4E1,7.5E1,1.07E2,1.7E1,5.7E1,1.3484116E0,-4.0621415E-1,7.2E1,4.1E1,1.018061E0,8.508613E0,1E1,6.1517253E0,1.78E2,1E0,1.58E2,1.216493E1,2.8894086E0,9E0,1E0,2.7017677E0,-8.8138735E-1,-1.7215501E-1,-7.4175644E-1,-3.0292833E0,-3.3890763E-1,-2.529147E0,-4.822226E0,-1.3588723E0,-2.0923474E0,4.3094078E-1,-1.4752469E0,2.2603557E0,1.539562E0,2.1025069E-1,-2.3520348E0,3.419266E-2,-1.907174E0,-3.3532994E0,-1.2217535E-1,-1.7541916E0,-2.0926142E0,-3.9884797E-1,9.5450205E-1,-5.801596E-1,-2.100761E0,-4.2022195E-1,-1.8300508E-1,3.294707E0,-1.4187195E0,1.2036817E0,2.1947725E0,4.506073E-2,2.1497514E0,4.4608426E0,1.9579636E0,4.4167514E0,1.9650074E0,4.0540957E-1,5.477621E0,3.2054412E0,6.4560634E-1,4.499862E0,-6.2820435E-2,2.938751E0,9.116839E0,2.613463E0,6.4225E0,2.0432165E0,9.679523E0,3.8612752E0,6.5348177E0,1.0857972E0,1.0009301E0,8.935325E0],"split_indices":[4,4,4,4,4,4,4,15,4,15,15,0,4,1,15,0,0,0,15,2,0,0,4,2,1,1,1,0,0,3,1,0,0,2,0,2,10,4,3,2,2,1,1,0,0,1,0,0,12,2,1,2,4,0,0,0,0,0,2,0,0,13,11,3,3,10,4,1,10,0,0,1,1,1,4,1,0,0,0,0,2,0,0,1,0,4,9,4,0,0,1,2,0,0,0,0,0,0,0,0,0,0,0,0,0,0,0,0,0,0,0,0,0,0,0,0,0,0,0,0,0,0,0,0,0,0,0,0,0,0,0,0,0,0,0,0,0,0,0,0,0,0,0,0,0,0,0],"split_type":[0,0,0,0,0,0,0,0,0,0,0,0,0,0,0,0,0,0,0,0,0,0,0,0,0,0,0,0,0,0,0,0,0,0,0,0,0,0,0,0,0,0,0,0,0,0,0,0,0,0,0,0,0,0,0,0,0,0,0,0,0,0,0,0,0,0,0,0,0,0,0,0,0,0,0,0,0,0,0,0,0,0,0,0,0,0,0,0,0,0,0,0,0,0,0,0,0,0,0,0,0,0,0,0,0,0,0,0,0,0,0,0,0,0,0,0,0,0,0,0,0,0,0,0,0,0,0,0,0,0,0,0,0,0,0,0,0,0,0,0,0,0,0,0,0,0,0],"sum_hessian":[7.19E2,3.6E2,3.59E2,1.98E2,1.62E2,1.83E2,1.76E2,9.6E1,1.02E2,6.8E1,9.4E1,9.4E1,8.9E1,4.1E1,1.35E2,4.9E1,4.7E1,4.2E1,6E1,3.6E1,3.2E1,4.6E1,4.8E1,7.7E1,1.7E1,3.2E1,5.7E1,5E0,3.6E1,7.9E1,5.6E1,3.3E1,2.7E1,3.5E1,1E0,2.5E1,7E0,2.4E1,2.2E1,3.5E1,1.3E1,7E0,7E1,1E0,1.6E1,2.8E1,4E0,2E0,5.5E1,1.6E1,2E1,5.1E1,2.8E1,1.4E1,4.2E1,2E0,3.3E1,2E0,2.3E1,6E0,1E0,1.7E1,7E0,1.4E1,8E0,2.7E1,8E0,3E0,1E1,1E0,6E0,1.8E1,5.2E1,6E0,1E1,1.7E1,1.1E1,1E0,1E0,4E1,1.5E1,1E0,1.5E1,5E0,1.5E1,4.3E1,8E0,1E1,1.8E1,6E0,8E0,3.9E1,3E0,1E0,1E0,1E0,3.2E1,1E0,1E0,2.2E1,1E0,1.5E1,2E0,4E0,3E0,6E0,8E0,3E0,5E0,1.5E1,1.2E1,5E0,3E0,2E0,1E0,6E0,4E0,4E0,2E0,4E0,1.4E1,7E0,4.5E1,5E0,1E0,4E0,6E0,8E0,9E0,3E0,8E0,2.7E1,1.3E1,6E0,9E0,1E0,4E0,4.2E1,1E0,6E0,2E0,6E0,4E0,7E0,1E0,1E0,3.8E1],"tree_param":{"num_deleted":"0","num_feature":"17","num_nodes":"147","size_leaf_vector":"1"}},{"base_weights":[7.567247E-1,-1.0167337E2,1.03469246E2,-1.5044519E2,-4.1506107E1,4.840248E1,1.5646605E2,-1.8810019E2,-1.2355023E2,-6.6998405E1,-2.2553743E1,2.6057077E1,7.095963E1,1.1909975E2,1.6850368E2,-8.263714E0,-1.0422206E1,-6.973021E0,-1.0613628E2,-5.306699E1,-8.058822E1,-1.0967182E1,-3.3207104E1,1.8414356E1,5.602953E1,7.6561195E1,4.9442215E1,5.6072247E1,1.2676862E2,1.8262581E2,1.4572694E2,-4.5803986E0,-5.9993606E0,-5.4789062E1,2.2318879E-1,-8.757634E1,-4.780329E1,-2.3229908E1,2.8387E0,-4.3400814E1,-4.6227636E0,4.370901E1,8.8814945E0,-1.2438415E0,6.225207E1,3.983662E1,8.534466E1,2.5587898E1,7.840488E1,1.1119487E0,3.257888E0,1.4454901E2,9.21181E1,1.6420425E2,2.093601E2,9.924726E1,1.614447E2,-1.3696055E1,-5.680347E1,-3.7284714E1,-9.021378E1,-5.1089993E1,-6.199097E-1,-3.406508E1,4.052967E0,1.6164307E1,-1.9686056E1,-5.0475227E1,-1.6569223E1,1.5901637E0,-1.3344043E1,-2.2745972E1,5.2356564E1,-3.1321625E1,1.5396983E1,3.6308033E1,7.310264E1,2.8261477E1,5.047216E0,9.8003716E1,6.2476776E1,-2.2723745E1,3.6437626E1,6.005953E0,2.1009716E1,9.9260944E-1,1.487428E2,-6.1249543E-2,9.802861E1,1.7180681E2,1.0879129E2,1.516126E2,1.1588697E1,1.0941677E2,1.5317291E1,1.7736575E2,9.435286E1,-8.593529E-1,-1.6785125E-1,-3.0405693E0,-1.8088162E0,-3.304352E-1,-2.4659183E0,-4.5915976E0,-1.3249E0,-7.6488346E-1,-2.7252884E0,-1.9942688E0,4.1657615E-1,-1.4162369E0,2.175593E0,1.0676017E0,-5.8519745E-1,-1.4548712E0,1.3901223E0,-2.8266962E0,-1.2111429E0,-1.1708527E-1,-1.6884098E0,-1.369435E0,5.898108E-1,-1.8265076E-1,-1.5232972E0,3.7200928E-3,3.1404016E0,-1.9381098E0,-2.9999694E-1,1.4407368E0,-2.4143028E-1,2.103324E0,4.393387E-2,2.0637615E0,4.2696633E0,2.5135667E0,5.2240366E-1,5.690723E0,3.0425193E0,6.4103854E-1,4.239743E0,-1.3841629E-1,-1.5658646E0,2.024457E0,-1.0193711E-1,2.194787E0,-4.4397736E-1,5.131389E0,8.413413E0,5.337663E0,1.231867E0,2.5012262E0,8.6737795E0,1.0477021E0,5.8575845E0,9.264686E0,3.7068245E0,3.5058763E0,6.7519464E0,9.566292E-1,1.9216767E-1,9.098982E0,8.583916E-1,2.4702837E0,7.471111E0],"categories":[],"categories_nodes":[],"categories_segments":[],"categories_sizes":[],"default_left":[0,0,0,0,0,0,0,0,0,0,0,0,0,0,0,0,0,0,0,0,0,0,0,0,0,0,0,0,0,0,0,0,0,0,0,0,0,0,0,0,0,0,0,0,0,0,0,0,0,0,0,0,0,0,0,0,0,0,0,0,0,0,0,0,0,0,0,0,0,0,0,0,0,0,0,0,0,0,0,0,0,0,0,0,0,0,0,0,0,0,0,0,0,0,0,0,0,0,0,0,0,0,0,0,0,0,0,0,0,0,0,0,0,0,0,0,0,0,0,0,0,0,0,0,0,0,0,0,0,0,0,0,0,0,0,0,0,0,0,0,0,0,0,0,0,0,0,0,0,0,0,0,0,0,0,0,0,0,0,0,0,0,0],"id":8,"left_children":[1,3,5,7,9,11,13,15,17,19,21,23,25,27,29,-1,-1,-1,31,33,35,37,39,41,43,45,47,49,51,53,55,-1,-1,57,-1,59,61,63,65,67,69,71,73,-1,75,77,79,81,83,-1,-1,85,87,89,91,93,95,97,99,101,103,105,-1,107,109,111,113,115,117,-1,119,121,123,125,127,129,131,133,-1,135,137,139,141,-1,143,-1,145,-1,147,149,151,153,-1,155,157,159,161,-1,-1,-1,-1,-1,-1,-1,-1,-1,-1,-1,-1,-1,-1,-1,-1,-1,-1,-1,-1,-1,-1,-1,-1,-1,-1,-1,-1,-1,-1,-1,-1,-1,-1,-1,-1,-1,-1,-1,-1,-1,-1,-1,-1,-1,-1,-1,-1,-1,-1,-1,-1,-1,-1,-1,-1,-1,-1,-1,-1,-1,-1,-1,-1,-1,-1],"loss_changes":[7.5855345E6,1.0530982E6,1.04303775E6,1.782935E5,7.7240625E4,8.7871625E4,6.22445E4,3.1635E3,1.8168375E4,8.786906E3,1.1362211E4,1.9813719E4,6.821375E3,1.60925625E4,1.7132E4,0E0,0E0,0E0,1.28325E3,3.9102266E3,3.3740156E3,8.022936E3,1.407702E4,1.7455455E4,1.0610609E4,1.8534875E4,1.2502363E4,7.02709E2,1.2560625E4,5.02125E3,2.561875E4,0E0,0E0,2.2020312E3,0E0,8.5078125E1,2.975039E2,7.5284297E3,7.2218003E3,5.9970938E3,4.8719272E3,1.2684355E4,1.4889122E4,0E0,2.131414E3,7.757121E3,9.509281E3,7.6421855E3,1.9024059E4,0E0,0E0,1.0643875E4,9.4990625E3,3.2155E3,2.396E3,1.2833984E4,2.7060125E4,5.0583374E1,6.109219E2,7.815029E2,4.109375E1,2.1998047E1,0E0,4.773998E3,1.1453168E4,2.4184973E3,4.831365E3,3.0841328E3,2.123213E3,0E0,4.560118E3,3.3089868E2,9.830988E3,1.2746924E3,1.3165466E4,1.3911631E3,7.7833984E2,4.963748E3,0E0,1.245925E4,2.3293852E4,4.2776685E2,1.7973086E3,0E0,3.8100063E3,0E0,5.2414375E3,0E0,7.6149062E3,2.63875E2,4.154383E3,1.4967297E4,0E0,5.6353594E3,5.779602E1,2.0528062E4,1.736982E4,0E0,0E0,0E0,0E0,0E0,0E0,0E0,0E0,0E0,0E0,0E0,0E0,0E0,0E0,0E0,0E0,0E0,0E0,0E0,0E0,0E0,0E0,0E0,0E0,0E0,0E0,0E0,0E0,0E0,0E0,0E0,0E0,0E0,0E0,0E0,0E0,0E0,0E0,0E0,0E0,0E0,0E0,0E0,0E0,0E0,0E0,0E0,0E0,0E0,0E0,0E0,0E0,0E0,0E0,0E0,0E0,0E0,0E0,0E0,0E0,0E0,0E0,0E0,0E0,0E0,0E0],"parents":[2147483647,0,0,1,1,2,2,3,3,4,4,5,5,6,6,7,7,8,8,9,9,10,10,11,11,12,12,13,13,14,14,18,18,19,19,20,20,21,21,22,22,23,23,24,24,25,25,26,26,27,27,28,28,29,29,30,30,33,33,35,35,36,36,37,37,38,38,39,39,40,40,41,41,42,42,44,44,45,45,46,46,47,47,48,48,51,51,52,52,53,53,54,54,55,55,56,56,57,57,58,58,59,59,60,60,61,61,63,63,64,64,65,65,66,66,67,67,68,68,70,70,71,71,72,72,73,73,74,74,75,75,76,76,77,77,79,79,80,80,81,81,82,82,84,84,86,86,88,88,89,89,90,90,91,91,93,93,94,94,95,95,96,96],"right_children":[2,4,6,8,10,12,14,16,18,20,22,24,26,28,30,-1,-1,-1,32,34,36,38,40,42,44,46,48,50,52,54,56,-1,-1,58,-1,60,62,64,66,68,70,72,74,-1,76,78,80,82,84,-1,-1,86,88,90,92,94,96,98,100,102,104,106,-1,108,110,112,114,116,118,-1,120,122,124,126,128,130,132,134,-1,136,138,140,142,-1,144,-1,146,-1,148,150,152,154,-1,156,158,160,162,-1,-1,-1,-1,-1,-1,-1,-1,-1,-1,-1,-1,-1,-1,-1,-1,-1,-1,-1,-1,-1,-1,-1,-1,-1,-1,-1,-1,-1,-1,-1,-1,-1,-1,-1,-1,-1,-1,-1,-1,-1,-1,-1,-1,-1,-1,-1,-1,-1,-1,-1,-1,-1,-1,-1,-1,-1,-1,-1,-1,-1,-1,-1,-1,-1,-1],"split_conditions":[1.03E2,6.3E1,1.44E2,3E1,8E1,1.24E2,1.54E2,1E0,4.6E1,1E0,1E0,8.7E1,1E0,8E0,1E0,-8.263714E0,-1.0422206E1,-6.973021E0,1E0,9.8E1,7.8E1,6E1,9.8E1,1.1E1,7E0,1.3E1,1.37E2,7E0,7.5E1,4.45E0,1.4E1,-4.5803986E0,-5.9993606E0,6E0,2.2318879E-1,1.6E1,1E0,9.3E1,4.41E0,8E1,2.3E1,6E0,1.4E1,-1.2438415E0,9E1,7.5E1,7.3E1,4.08E0,1.42E2,1.1119487E0,3.257888E0,1.1E1,1E1,8.8E1,1.63E2,1E0,4.2E1,4.3E1,8.3E1,6.1E1,9.2E1,8.1E1,-6.199097E-1,1E0,1E0,1E2,4.92E0,1E0,9.1E1,1.5901637E0,2.5E1,2.4E1,1.2E1,1E0,6.8E1,7.5E1,1.07E2,3.2E1,5.047216E0,1E0,4.1E1,3.1E1,8.1E1,6.005953E0,1E1,9.9260944E-1,4.27E0,-6.1249543E-2,1E0,3.53E0,1E1,1.58E2,1.1588697E1,4.37E0,5.4E1,4.93E0,1E0,-8.593529E-1,-1.6785125E-1,-3.0405693E0,-1.8088162E0,-3.304352E-1,-2.4659183E0,-4.5915976E0,-1.3249E0,-7.6488346E-1,-2.7252884E0,-1.9942688E0,4.1657615E-1,-1.4162369E0,2.175593E0,1.0676017E0,-5.8519745E-1,-1.4548712E0,1.3901223E0,-2.8266962E0,-1.2111429E0,-1.1708527E-1,-1.6884098E0,-1.369435E0,5.898108E-1,-1.8265076E-1,-1.5232972E0,3.7200928E-3,3.1404016E0,-1.9381098E0,-2.9999694E-1,1.4407368E0,-2.4143028E-1,2.103324E0,4.393387E-2,2.0637615E0,4.2696633E0,2.5135667E0,5.2240366E-1,5.690723E0,3.0425193E0,6.4103854E-1,4.239743E0,-1.3841629E-1,-1.5658646E0,2.024457E0,-1.0193711E-1,2.194787E0,-4.4397736E-1,5.131389E0,8.413413E0,5.337663E0,1.231867E0,2.5012262E0,8.6737795E0,1.0477021E0,5.8575845E0,9.264686E0,3.7068245E0,3.5058763E0,6.7519464E0,9.566292E-1,1.9216767E-1,9.098982E0,8.583916E-1,2.4702837E0,7.471111E0],"split_indices":[4,4,4,4,4,4,4,15,4,15,15,0,8,1,15,0,0,0,15,2,0,0,4,1,1,1,4,1,0,3,1,0,0,2,0,2,10,4,3,2,0,1,1,0,0,0,0,3,4,0,0,2,1,2,4,12,1,0,0,0,2,0,0,13,11,4,3,11,4,0,1,0,2,13,0,1,4,0,0,12,2,0,0,0,1,0,3,0,7,3,1,4,0,3,0,3,9,0,0,0,0,0,0,0,0,0,0,0,0,0,0,0,0,0,0,0,0,0,0,0,0,0,0,0,0,0,0,0,0,0,0,0,0,0,0,0,0,0,0,0,0,0,0,0,0,0,0,0,0,0,0,0,0,0,0,0,0,0,0,0,0,0,0],"split_type":[0,0,0,0,0,0,0,0,0,0,0,0,0,0,0,0,0,0,0,0,0,0,0,0,0,0,0,0,0,0,0,0,0,0,0,0,0,0,0,0,0,0,0,0,0,0,0,0,0,0,0,0,0,0,0,0,0,0,0,0,0,0,0,0,0,0,0,0,0,0,0,0,0,0,0,0,0,0,0,0,0,0,0,0,0,0,0,0,0,0,0,0,0,0,0,0,0,0,0,0,0,0,0,0,0,0,0,0,0,0,0,0,0,0,0,0,0,0,0,0,0,0,0,0,0,0,0,0,0,0,0,0,0,0,0,0,0,0,0,0,0,0,0,0,0,0,0,0,0,0,0,0,0,0,0,0,0,0,0,0,0,0,0],"sum_hessian":[7.19E2,3.6E2,3.59E2,1.98E2,1.62E2,1.77E2,1.82E2,8E1,1.18E2,6.8E1,9.4E1,9E1,8.7E1,4.7E1,1.35E2,4.2E1,3.8E1,5.8E1,6E1,3.6E1,3.2E1,4.6E1,4.8E1,7.3E1,1.7E1,6.7E1,2E1,6E0,4.1E1,7.9E1,5.6E1,3.3E1,2.7E1,3.5E1,1E0,2.5E1,7E0,2.4E1,2.2E1,3.5E1,1.3E1,1.9E1,5.4E1,1E0,1.6E1,1.4E1,5.3E1,1.2E1,8E0,2E0,4E0,2.5E1,1.6E1,5.1E1,2.8E1,1.6E1,4E1,2E0,3.3E1,2E0,2.3E1,6E0,1E0,1.7E1,7E0,1.4E1,8E0,2.7E1,8E0,2E0,1.1E1,2E0,1.7E1,7E0,4.7E1,6E0,1E1,1.3E1,1E0,3.2E1,2.1E1,2E0,1E1,4E0,4E0,1E0,2.4E1,1E0,1.5E1,4.3E1,8E0,1E1,1.8E1,1.4E1,2E0,3.1E1,9E0,1E0,1E0,2.6E1,7E0,1E0,1E0,2.2E1,1E0,1E0,5E0,1.5E1,2E0,4E0,3E0,1.2E1,2E0,7E0,1E0,2.1E1,6E0,5E0,3E0,7E0,4E0,1E0,1E0,3E0,1.4E1,5E0,2E0,2.8E1,1.9E1,5E0,1E0,4E0,6E0,5E0,8E0,2.1E1,1.1E1,7E0,1.4E1,1E0,1E0,9E0,1E0,2E0,2E0,9E0,1.5E1,1.3E1,2E0,1E0,4.2E1,1E0,7E0,6E0,4E0,7E0,7E0,1E0,1E0,3E1,1E0,6E0,3E0],"tree_param":{"num_deleted":"0","num_feature":"17","num_nodes":"163","size_leaf_vector":"1"}},{"base_weights":[8.251674E-1,-9.6756325E1,9.867543E1,-1.4802544E2,-4.4952644E1,4.619195E1,1.4918571E2,-1.7892587E2,-1.2177831E2,-7.0063446E1,-2.148325E1,2.4838135E1,6.774883E1,1.17058655E2,1.6207579E2,-7.860138E0,-9.914458E0,-1.0596159E2,-6.919305E0,-5.7185894E1,-8.311665E1,-1.0427351E1,-3.1649456E1,1.7499033E1,5.3630104E1,7.30522E1,4.7349873E1,8.9330376E1,1.2998186E2,7.4843293E-1,1.6311626E2,-1.0675939E2,-1.5520737E0,-6.787079E1,-3.6200745E1,-4.234521E0,-1.7476084E0,-2.210115E1,2.7149246E0,-4.139309E1,-4.3337226E0,4.159546E1,8.418531E0,-1.2127457E0,5.9638336E1,3.8383667E1,8.132954E1,2.4325298E1,7.534649E1,9.467497E1,1.2852234E0,1.5343254E2,1.0092427E2,1.4453668E2,1.796965E2,-5.614961E0,-3.8775024E0,-7.5787704E1,-4.4458183E1,-1.9436285E1,-5.0805614E1,-3.244948E1,3.9452324E0,2.855654E1,-8.085442E0,-4.696147E1,-1.1615291E1,-3.320459E1,6.558749E0,-2.2177328E1,4.99134E1,-2.2021673E0,3.2288456E1,3.4799374E1,7.002328E1,2.7065256E1,4.921036E0,9.336817E1,5.9574783E1,-2.215565E1,3.479053E1,5.7657146E0,2.0309387E1,5.8948135E-1,9.862474E1,1.8373756E0,7.906737E0,3.519101E1,1.1610707E2,1.5093327E2,8.009428E1,1.3279893E2,9.92105E0,-7.832878E-1,-3.9005258E0,-8.0318606E-1,-2.4774418E0,1.7854564E-2,-1.9650539E0,-3.7134874E0,-1.45401E-1,-1.9007877E0,4.0269065E-1,-1.3595877E0,2.094008E0,2.030679E0,-5.2868653E-2,3.9733955E-1,-1.1609646E0,-1.655459E0,-3.021386E0,-1.054639E0,4.0261436E-1,-1.977212E0,-3.5464096E-1,1.1776471E0,-3.2584623E-1,-1.7808457E-1,-1.4852151E0,3.580475E-3,2.9938493E0,1.4861964E0,-5.699998E-1,1.2899765E-1,3.2694016E0,2.015685E0,4.2835236E-2,1.9812113E0,4.0866785E0,2.4088342E0,4.9918586E-1,5.41912E0,2.9030707E0,6.1299247E-1,4.041888E0,-1.349556E-1,-1.5267181E0,1.9333569E0,-9.938889E-2,2.1216273E0,-4.291784E-1,5.386049E0,1.9928833E0,-5.9718322E-2,2.2292974E0,6.086047E0,9.37822E-1,8.003479E0,4.553605E0,2.642495E0,6.7701235E0,9.183037E0,4.368581E0],"categories":[],"categories_nodes":[],"categories_segments":[],"categories_sizes":[],"default_left":[0,0,0,0,0,0,0,0,0,0,0,0,0,0,0,0,0,0,0,0,0,0,0,0,0,0,0,0,0,0,0,0,0,0,0,0,0,0,0,0,0,0,0,0,0,0,0,0,0,0,0,0,0,0,0,0,0,0,0,0,0,0,0,0,0,0,0,0,0,0,0,0,0,0,0,0,0,0,0,0,0,0,0,0,0,0,0,0,0,0,0,0,0,0,0,0,0,0,0,0,0,0,0,0,0,0,0,0,0,0,0,0,0,0,0,0,0,0,0,0,0,0,0,0,0,0,0,0,0,0,0,0,0,0,0,0,0,0,0,0,0,0,0,0,0,0,0,0,0,0,0,0,0],"id":9,"left_children":[1,3,5,7,9,11,13,15,17,19,21,23,25,27,29,-1,-1,31,-1,33,35,37,39,41,43,45,47,49,51,-1,53,55,-1,57,59,-1,-1,61,63,65,67,69,71,-1,73,75,77,79,81,83,-1,85,87,89,91,-1,-1,93,95,97,99,101,103,105,107,109,111,113,115,117,119,121,123,125,127,129,-1,131,133,135,137,-1,139,-1,141,-1,-1,143,145,147,149,151,-1,-1,-1,-1,-1,-1,-1,-1,-1,-1,-1,-1,-1,-1,-1,-1,-1,-1,-1,-1,-1,-1,-1,-1,-1,-1,-1,-1,-1,-1,-1,-1,-1,-1,-1,-1,-1,-1,-1,-1,-1,-1,-1,-1,-1,-1,-1,-1,-1,-1,-1,-1,-1,-1,-1,-1,-1,-1,-1,-1,-1],"loss_changes":[6.884377E6,9.52136E5,9.4745275E5,1.250105E5,1.0516447E5,8.025447E4,5.68115E4,2.8995E3,1.1867E4,9.8710625E3,1.0347652E4,1.8290473E4,6.0611562E3,8.455625E3,1.714975E4,0E0,0E0,3.31875E1,0E0,8.0815625E3,1.4765625E2,7.2707563E3,1.286218E4,1.5841596E4,9.869645E3,1.639175E4,1.1703984E4,4.7075938E3,9.0460625E3,0E0,1.315025E4,1.91E2,0E0,2.1912812E3,3.4196973E3,0E0,0E0,6.8664336E3,6.6501675E3,5.4238477E3,4.620432E3,1.1716105E4,1.4014445E4,0E0,1.9484102E3,7.529078E3,8.580094E3,7.094447E3,1.745545E4,5.0574062E3,0E0,4.065125E3,1.4876359E4,1.4704875E4,2.897225E4,0E0,0E0,1.5843281E3,6.495254E2,3.9459473E3,9.898902E3,4.3643164E3,1.05882295E4,2.542337E3,4.309219E3,3.5954297E3,1.47464E3,3.8167773E2,2.597808E3,3.1456067E2,8.9345625E3,1.1791232E4,1.6548062E4,1.2756602E3,6.7716406E2,4.5676367E3,0E0,1.12005625E4,2.1142188E4,4.0664648E2,1.6451885E3,0E0,3.5602397E3,0E0,5.328547E3,0E0,0E0,1.7624429E3,5.9146562E3,1.7142875E4,4.8986914E3,3.2474094E4,0E0,0E0,0E0,0E0,0E0,0E0,0E0,0E0,0E0,0E0,0E0,0E0,0E0,0E0,0E0,0E0,0E0,0E0,0E0,0E0,0E0,0E0,0E0,0E0,0E0,0E0,0E0,0E0,0E0,0E0,0E0,0E0,0E0,0E0,0E0,0E0,0E0,0E0,0E0,0E0,0E0,0E0,0E0,0E0,0E0,0E0,0E0,0E0,0E0,0E0,0E0,0E0,0E0,0E0,0E0,0E0,0E0,0E0,0E0,0E0,0E0],"parents":[2147483647,0,0,1,1,2,2,3,3,4,4,5,5,6,6,7,7,8,8,9,9,10,10,11,11,12,12,13,13,14,14,17,17,19,19,20,20,21,21,22,22,23,23,24,24,25,25,26,26,27,27,28,28,30,30,31,31,33,33,34,34,37,37,38,38,39,39,40,40,41,41,42,42,44,44,45,45,46,46,47,47,48,48,49,49,51,51,52,52,53,53,54,54,57,57,58,58,59,59,60,60,61,61,62,62,63,63,64,64,65,65,66,66,67,67,68,68,69,69,70,70,71,71,72,72,73,73,74,74,75,75,77,77,78,78,79,79,80,80,82,82,84,84,87,87,88,88,89,89,90,90,91,91],"right_children":[2,4,6,8,10,12,14,16,18,20,22,24,26,28,30,-1,-1,32,-1,34,36,38,40,42,44,46,48,50,52,-1,54,56,-1,58,60,-1,-1,62,64,66,68,70,72,-1,74,76,78,80,82,84,-1,86,88,90,92,-1,-1,94,96,98,100,102,104,106,108,110,112,114,116,118,120,122,124,126,128,130,-1,132,134,136,138,-1,140,-1,142,-1,-1,144,146,148,150,152,-1,-1,-1,-1,-1,-1,-1,-1,-1,-1,-1,-1,-1,-1,-1,-1,-1,-1,-1,-1,-1,-1,-1,-1,-1,-1,-1,-1,-1,-1,-1,-1,-1,-1,-1,-1,-1,-1,-1,-1,-1,-1,-1,-1,-1,-1,-1,-1,-1,-1,-1,-1,-1,-1,-1,-1,-1,-1,-1,-1,-1],"split_conditions":[1.03E2,5.7E1,1.44E2,3E1,8E1,1.24E2,1.55E2,1E0,1E0,1E0,1E0,8.7E1,1E0,3.9E1,1E0,-7.860138E0,-9.914458E0,4.9E0,-6.919305E0,7E1,7.9E1,6E1,9.8E1,1.1E1,7E0,1.3E1,1.37E2,3.3E1,6.2E1,7.4843293E-1,4.21E0,5.1E1,-1.5520737E0,1E0,5.9E1,-4.234521E0,-1.7476084E0,9.3E1,4.08E0,8.1E1,3.2E1,6E0,4.57E0,-1.2127457E0,9E1,7.5E1,7.3E1,4.08E0,1.42E2,7E0,1.2852234E0,2.1E1,1.7E1,4.13E0,1.63E2,-5.614961E0,-3.8775024E0,4E0,2.9E1,7.3E1,7.4E1,1E0,1E0,9.2E1,1E0,8.8E1,7.9E1,1.2E1,4.7E1,2.4E1,1.2E1,1.09E2,4.4E1,7.5E1,1.07E2,3.2E1,4.921036E0,1E0,4.1E1,3.1E1,8.1E1,5.7657146E0,1E1,5.8948135E-1,1E0,1.8373756E0,7.906737E0,1E1,1E0,8.8E1,1E0,4.65E0,9.92105E0,-7.832878E-1,-3.9005258E0,-8.0318606E-1,-2.4774418E0,1.7854564E-2,-1.9650539E0,-3.7134874E0,-1.45401E-1,-1.9007877E0,4.0269065E-1,-1.3595877E0,2.094008E0,2.030679E0,-5.2868653E-2,3.9733955E-1,-1.1609646E0,-1.655459E0,-3.021386E0,-1.054639E0,4.0261436E-1,-1.977212E0,-3.5464096E-1,1.1776471E0,-3.2584623E-1,-1.7808457E-1,-1.4852151E0,3.580475E-3,2.9938493E0,1.4861964E0,-5.699998E-1,1.2899765E-1,3.2694016E0,2.015685E0,4.2835236E-2,1.9812113E0,4.0866785E0,2.4088342E0,4.9918586E-1,5.41912E0,2.9030707E0,6.1299247E-1,4.041888E0,-1.349556E-1,-1.5267181E0,1.9333569E0,-9.938889E-2,2.1216273E0,-4.291784E-1,5.386049E0,1.9928833E0,-5.9718322E-2,2.2292974E0,6.086047E0,9.37822E-1,8.003479E0,4.553605E0,2.642495E0,6.7701235E0,9.183037E0,4.368581E0],"split_indices":[4,4,4,4,4,4,4,15,15,15,15,0,8,2,2,0,0,3,0,4,4,0,4,1,1,1,4,2,0,0,3,4,0,7,2,0,0,4,3,2,2,1,3,0,0,0,0,3,4,1,0,0,1,3,4,0,0,2,0,4,4,13,11,0,9,4,0,1,0,0,2,4,2,1,4,0,0,12,2,0,0,0,1,0,12,0,0,1,7,2,9,3,0,0,0,0,0,0,0,0,0,0,0,0,0,0,0,0,0,0,0,0,0,0,0,0,0,0,0,0,0,0,0,0,0,0,0,0,0,0,0,0,0,0,0,0,0,0,0,0,0,0,0,0,0,0,0,0,0,0,0,0,0],"split_type":[0,0,0,0,0,0,0,0,0,0,0,0,0,0,0,0,0,0,0,0,0,0,0,0,0,0,0,0,0,0,0,0,0,0,0,0,0,0,0,0,0,0,0,0,0,0,0,0,0,0,0,0,0,0,0,0,0,0,0,0,0,0,0,0,0,0,0,0,0,0,0,0,0,0,0,0,0,0,0,0,0,0,0,0,0,0,0,0,0,0,0,0,0,0,0,0,0,0,0,0,0,0,0,0,0,0,0,0,0,0,0,0,0,0,0,0,0,0,0,0,0,0,0,0,0,0,0,0,0,0,0,0,0,0,0,0,0,0,0,0,0,0,0,0,0,0,0,0,0,0,0,0,0],"sum_hessian":[7.19E2,3.6E2,3.59E2,1.8E2,1.8E2,1.77E2,1.82E2,8E1,1E2,8.6E1,9.4E1,9E1,8.7E1,5.5E1,1.27E2,4.2E1,3.8E1,5.5E1,4.5E1,4.6E1,4E1,4.6E1,4.8E1,7.3E1,1.7E1,6.7E1,2E1,2E1,3.5E1,1E0,1.26E2,5.4E1,1E0,2.9E1,1.7E1,3.8E1,2E0,2.4E1,2.2E1,3.5E1,1.3E1,1.9E1,5.4E1,1E0,1.6E1,1.4E1,5.3E1,1.2E1,8E0,1.8E1,2E0,1.7E1,1.8E1,6.4E1,6.2E1,4.3E1,1.1E1,2E1,9E0,9E0,8E0,1.7E1,7E0,6E0,1.6E1,2.9E1,6E0,3E0,1E1,2E0,1.7E1,3.8E1,1.6E1,6E0,1E1,1.3E1,1E0,3.2E1,2.1E1,2E0,1E1,4E0,4E0,1E0,1.7E1,1E0,1.6E1,4E0,1.4E1,5.7E1,7E0,2E1,4.2E1,1E0,1.9E1,2E0,7E0,5E0,4E0,5E0,3E0,1.5E1,2E0,4E0,3E0,4E0,2E0,8E0,8E0,1.6E1,1.3E1,4E0,2E0,2E0,1E0,4E0,6E0,1E0,1E0,3E0,1.4E1,8E0,3E1,9E0,7E0,5E0,1E0,4E0,6E0,5E0,8E0,2.1E1,1.1E1,7E0,1.4E1,1E0,1E0,9E0,1E0,2E0,2E0,1.4E1,3E0,1E0,3E0,1.3E1,1E0,4.8E1,9E0,6E0,1E0,8E0,1.2E1],"tree_param":{"num_deleted":"0","num_feature":"17","num_nodes":"153","size_leaf_vector":"1"}}]},"name":"gbtree"},"learner_model_param":{"base_score":"3.7238593E2","boost_from_average":"1","num_class":"0","num_feature":"17","num_target":"1"},"objective":{"name":"reg:squarederror","reg_loss_param":{"scale_pos_weight":"1"}}},"version":[2,1,1]}